%YAML:1.0
---
opencv_ml_ann_mlp:
   format: 3
   layer_sizes: [ 1280, 30, 20, 20 ]
   activation_function: SIGMOID_SYM
   f_param1: 6.6666666666666663e-01
   f_param2: 1.7159000000000000e+00
   min_val: -9.4999999999999996e-01
   max_val: 9.4999999999999996e-01
   min_val1: -9.7999999999999998e-01
   max_val1: 9.7999999999999998e-01
   training_params:
      train_method: BACKPROP
      dw_scale: 1.0000000000000000e-03
      moment_scale: 0.
      term_criteria:
         epsilon: 0.
         iterations: 1
   input_scale:
      - 3.0517929671238203e-02
      - -4.8254587806898430e-01
      - 6.3140787170435655e-02
      - -4.6199051206883118e-01
      - 8.6034909204073015e-02
      - -3.9184216073142164e-01
      - 4.2903919430953848e-02
      - -4.9148351268924362e-01
      - 1.8700606431763616e-02
      - -1.1394409107036960e+00
      - 2.4350704414271524e-02
      - -9.3135416982505848e-01
      - 6.6425665172451909e-02
      - -3.9263487235597810e-01
      - 6.1524388655664002e-02
      - -3.7341039847447560e-01
      - 1.4416595623301493e-02
      - -7.3025052681990532e-01
      - 3.0661297882534001e-02
      - -7.6835391030389655e-01
      - 3.7613348329352099e-02
      - -6.7704026992833777e-01
      - 4.0694317326690765e-02
      - -6.9704127698193086e-01
      - 1.7746112457045410e-02
      - -1.0245305122478394e+00
      - 2.1848727314292465e-02
      - -8.5772479011059033e-01
      - 6.2415758901297538e-02
      - -6.8904525915788872e-01
      - 5.0824547169268049e-02
      - -7.4878144740466202e-01
      - 1.9915570297155554e-02
      - -1.0194405785771705e+00
      - 3.0637913585677565e-02
      - -9.6130245696051686e-01
      - 3.7919774137213889e-02
      - -7.8317474109136798e-01
      - 6.1465071810481754e-02
      - -6.8828709126390952e-01
      - 3.2129583947309540e-02
      - -6.0250922768519077e-01
      - 4.4850871462448712e-02
      - -7.1095292288495437e-01
      - 5.4762877987839388e-02
      - -8.1656330940283295e-01
      - 4.3281598313094319e-02
      - -8.6306078220368287e-01
      - 3.6563630790096509e-02
      - -9.4993036824963606e-01
      - 4.8837117462480206e-02
      - -7.6447012582357632e-01
      - 5.2430991187727281e-02
      - -5.2067608080485617e-01
      - 6.8623505594131315e-02
      - -3.8660172953525462e-01
      - 6.4373662909829918e-02
      - -4.6017608535541782e-01
      - 6.5491089070472880e-02
      - -4.8437468847171528e-01
      - 6.9240900451291873e-02
      - -6.0328705343699851e-01
      - 5.7266561205646709e-02
      - -8.4595751800816721e-01
      - 3.7618419839909038e-02
      - -5.6241399958675897e-01
      - 6.4856205142914680e-02
      - -3.6537802699325200e-01
      - 6.4125290944376578e-02
      - -4.7363828756935572e-01
      - 3.6457803508505630e-02
      - -7.4648255104544203e-01
      - 1.8798559861613148e-02
      - -1.2948671381905215e+00
      - 2.5904252627290323e-02
      - -8.7433264560824464e-01
      - 5.1307455483021285e-02
      - -4.3687536351879513e-01
      - 7.3503178124633181e-02
      - -4.5848517048038523e-01
      - 1.4858612567595223e-02
      - -8.7062642747552998e-01
      - 5.1465557789637593e-02
      - -1.1159363520723400e+00
      - 3.2471429510504725e-02
      - -6.5135758602259963e-01
      - 2.2119758642382845e-02
      - -7.5010072623922019e-01
      - 1.7726347630031215e-02
      - -1.4344300908935161e+00
      - 2.1565328531974112e-02
      - -1.0475198195828217e+00
      - 3.1527998183181902e-02
      - -7.6915829231049715e-01
      - 2.6018616564293995e-02
      - -9.9746617165293405e-01
      - 1.7241557172378612e-02
      - -1.2412214079244048e+00
      - 2.2695043108591540e-02
      - -8.3454841688424741e-01
      - 3.6334489702637460e-02
      - -7.6446327344658027e-01
      - 6.0207298583075941e-02
      - -9.9789126562444674e-01
      - 2.6733483679206350e-02
      - -7.8585854498577878e-01
      - 2.1956955486675214e-02
      - -8.7197374709954734e-01
      - 2.4407333571797682e-02
      - -9.7943488085639607e-01
      - 3.2997800982199364e-02
      - -1.3859076412523732e+00
      - 2.9976374081071983e-02
      - -1.1248560174976516e+00
      - 4.8781752320881451e-02
      - -7.5829060538399873e-01
      - 8.3951757064820234e-02
      - -5.9348073806219448e-01
      - 8.9726145820681821e-02
      - -6.3519004219591590e-01
      - 4.6353973274496786e-02
      - -5.9893005072493377e-01
      - 5.2269591371711298e-02
      - -7.1987130295099422e-01
      - 4.8720111913781824e-02
      - -7.3417832012649442e-01
      - 4.2459018064603019e-02
      - -9.9547479977207864e-01
      - 3.6806206604089196e-02
      - -5.8197536580921239e-01
      - 4.7732805655082491e-02
      - -4.0832815926724036e-01
      - 4.0615338260697201e-02
      - -4.8537339881843095e-01
      - 2.8868546417814861e-02
      - -8.3347209261730826e-01
      - 1.8225716269115327e-02
      - -1.2193184636674481e+00
      - 4.1743086183631928e-02
      - -8.1295693587330697e-01
      - 7.9687946146072955e-02
      - -3.7477004375628370e-01
      - 7.9064595662393988e-02
      - -4.2272160057121538e-01
      - 1.4573011024375675e-02
      - -8.9573517266657610e-01
      - 2.4378173583182235e-02
      - -9.6643769333724427e-01
      - 3.0633964568928241e-02
      - -7.4643749311022178e-01
      - 2.5115858091616015e-02
      - -1.0193059635399411e+00
      - 1.7801678480570748e-02
      - -1.4445797705619587e+00
      - 2.2995669167556815e-02
      - -8.4879064016486927e-01
      - 2.5653580444150788e-02
      - -5.8266647068199906e-01
      - 4.4133468713289145e-02
      - -1.0329853469130250e+00
      - 1.8417075926114936e-02
      - -1.3429877643152131e+00
      - 3.0554528914436278e-02
      - -1.3525673146182633e+00
      - 2.3946180732625871e-02
      - -8.8031850554692925e-01
      - 2.3738267796296727e-02
      - -8.3601008466759863e-01
      - 2.3587813815145953e-02
      - -7.5457649937362947e-01
      - 4.0883833425291269e-02
      - -7.8569822453950833e-01
      - 3.1246108621384751e-02
      - -7.5702205739137118e-01
      - 2.3301453730488801e-02
      - -8.9468354026569874e-01
      - 3.0865796923345828e-02
      - -1.1466185154098369e+00
      - 3.2822922723467846e-02
      - -8.3552212200035469e-01
      - 6.6730178835587545e-02
      - -7.1883598587246789e-01
      - 5.4551910178538214e-02
      - -6.2869726185958885e-01
      - 4.4275527698912187e-02
      - -6.1240507124138943e-01
      - 5.1944562139781499e-02
      - -5.1738841101604149e-01
      - 5.4370662574399903e-02
      - -6.0023058188570189e-01
      - 5.0359116004114857e-02
      - -8.7206033555640483e-01
      - 3.9824448827520516e-02
      - -5.5557077621758821e-01
      - 9.8586190041900154e-02
      - -3.7189443966300945e-01
      - 8.2284615644638986e-02
      - -3.5357943752250814e-01
      - 3.0383354093400278e-02
      - -7.6951108684077141e-01
      - 1.7623783822040107e-02
      - -1.0012403125828331e+00
      - 4.3069794638226348e-02
      - -5.8208187803147493e-01
      - 5.7097916056001001e-02
      - -4.0081606419509613e-01
      - 4.0743252464284035e-02
      - -4.4696558148937343e-01
      - 1.4707498509061105e-02
      - -7.7833247060328326e-01
      - 4.1186206646087020e-02
      - -7.2137029264285091e-01
      - 4.4134201861053372e-02
      - -5.8292104240242770e-01
      - 2.5885707444545845e-02
      - -7.9374293025503451e-01
      - 1.6876033088428423e-02
      - -1.0408001000774321e+00
      - 3.6158461206717479e-02
      - -7.3820541592328159e-01
      - 3.7591296520967439e-02
      - -6.4910119933234867e-01
      - 2.7087731845949311e-02
      - -7.3190515057025407e-01
      - 1.9735126354253864e-02
      - -1.1000867462816759e+00
      - 3.5187494098534548e-02
      - -9.0477150667222006e-01
      - 3.7230495157539845e-02
      - -6.2886361127488088e-01
      - 3.9731424240386774e-02
      - -5.2673640651364251e-01
      - 2.9416557116296829e-02
      - -5.8774863624442586e-01
      - 3.5954427684552127e-02
      - -6.2083685031543479e-01
      - 3.2455917720023070e-02
      - -6.9828424956049640e-01
      - 3.2104973022238227e-02
      - -1.0705895954346372e+00
      - 3.8490881609730243e-02
      - -9.7713485591434013e-01
      - 4.0810875747149797e-02
      - -7.6045612035778143e-01
      - 5.7806775041878242e-02
      - -5.5288460089558789e-01
      - 8.6179419381813088e-02
      - -5.5888633361472850e-01
      - 4.0769334035401103e-02
      - -4.3635297121058009e-01
      - 4.7100903697707648e-02
      - -4.4302830210715111e-01
      - 6.7163222827547678e-02
      - -5.5925020196007513e-01
      - 5.8928694258460687e-02
      - -8.8568077113211208e-01
      - 4.0578103477387585e-02
      - -7.4486934502056024e-01
      - 8.0866169128656296e-02
      - -5.6526252876070637e-01
      - 7.7242096265278878e-02
      - -4.4509802006329013e-01
      - 3.5872774901107470e-02
      - -4.7771170536623314e-01
      - 1.9582372462316176e-02
      - -7.9434633641692454e-01
      - 2.6441307256443260e-02
      - -6.8197629111915536e-01
      - 4.5062629267677498e-02
      - -3.6050103414141998e-01
      - 9.0906476408077183e-02
      - -4.2032994537200041e-01
      - 1.2052742820850356e-02
      - -9.4942199883846956e-01
      - 3.6505996540701066e-02
      - -8.9168607391989640e-01
      - 3.4684892189159836e-02
      - -6.1333878663207386e-01
      - 3.4981007187417201e-02
      - -6.7918569400519924e-01
      - 2.0722957493945877e-02
      - -7.6038891556993493e-01
      - 2.9386762957132877e-02
      - -6.7444075776865353e-01
      - 3.9277275541011757e-02
      - -4.8571601139330378e-01
      - 4.4166944208283536e-02
      - -7.8319799086174069e-01
      - 1.7583170031685563e-02
      - -1.2118460058471605e+00
      - 3.5790457896192347e-02
      - -1.0645003516847704e+00
      - 3.6580927337487565e-02
      - -6.7366856284878085e-01
      - 4.4332353985862959e-02
      - -6.2811483716603855e-01
      - 3.6254303515925977e-02
      - -5.5135257624220102e-01
      - 5.1778180192343877e-02
      - -6.3056595679785121e-01
      - 4.2849998200213998e-02
      - -6.2196136001498736e-01
      - 4.1318412228730464e-02
      - -8.5745932704375305e-01
      - 3.3015147326416756e-02
      - -8.8029496782218153e-01
      - 5.6491813141598873e-02
      - -8.9044521308341984e-01
      - 8.7817786990812483e-02
      - -6.5124279659523321e-01
      - 4.6346261810110596e-02
      - -5.1439761870429679e-01
      - 4.7483508035431166e-02
      - -5.6698129396762365e-01
      - 5.4594291515366093e-02
      - -4.9513238641658747e-01
      - 4.9010293045419276e-02
      - -4.9835218769946132e-01
      - 5.0947773466648846e-02
      - -7.8187177102282879e-01
      - 3.3276899368237731e-02
      - -8.2796879319189520e-01
      - 6.4655736121099622e-02
      - -5.0956401933064654e-01
      - 4.0836780387376724e-02
      - -4.7305973320030459e-01
      - 2.6432406604013050e-02
      - -6.7703599885724508e-01
      - 1.9088428949060848e-02
      - -8.9885710972013266e-01
      - 2.6661037977330840e-02
      - -6.2613843645771039e-01
      - 8.5553046137393243e-02
      - -4.0235343480457214e-01
      - 1.1413092420172688e-01
      - -5.8308472166426806e-01
      - 1.2619320808973714e-02
      - -1.0973811352991696e+00
      - 4.4253830192463262e-02
      - -1.0747984699219046e+00
      - 2.4549003364367373e-02
      - -6.0959307364191462e-01
      - 2.0093861619690893e-02
      - -7.2576640780824131e-01
      - 1.8503771076340284e-02
      - -9.8179910097136225e-01
      - 2.5616061036875911e-02
      - -7.6543833870585642e-01
      - 3.7971073256340422e-02
      - -7.5115053827889278e-01
      - 2.5762560077538261e-02
      - -1.0279516545790019e+00
      - 1.7476111692073887e-02
      - -1.6107437994209486e+00
      - 2.1408838929197309e-02
      - -8.8242570754701388e-01
      - 2.7873131856019761e-02
      - -6.7971805704333343e-01
      - 6.3906747671119923e-02
      - -9.7948163757320428e-01
      - 2.8029659547901074e-02
      - -6.5023259723497240e-01
      - 2.5040397062732391e-02
      - -7.2369226758530547e-01
      - 2.5342973341707594e-02
      - -8.0946962376582876e-01
      - 3.4067136621117121e-02
      - -1.4196888914681380e+00
      - 3.3036132696039083e-02
      - -1.1448164795657108e+00
      - 4.5674030984856964e-02
      - -8.1037488638478894e-01
      - 6.8562224920096365e-02
      - -5.5596497237187048e-01
      - 4.4355159531645427e-02
      - -5.6519891403195710e-01
      - 3.5117659323667200e-02
      - -6.6062923480166014e-01
      - 4.6749801237004306e-02
      - -6.5218287072216896e-01
      - 6.9498568019615875e-02
      - -6.9154515702687092e-01
      - 3.9619073941395931e-02
      - -8.1513302623980932e-01
      - 3.2821116835170507e-02
      - -8.5594873013702089e-01
      - 7.6633950571786763e-02
      - -5.9789656485710863e-01
      - 5.2738386584148374e-02
      - -4.6629088336281682e-01
      - 3.2618842773651728e-02
      - -6.8854824547946025e-01
      - 1.9394920214762912e-02
      - -8.9773516835660017e-01
      - 3.1278222295663273e-02
      - -6.7666253184182434e-01
      - 4.9259279733265257e-02
      - -4.3504235170368921e-01
      - 6.2581363303966658e-02
      - -4.8516046997035539e-01
      - 1.2991873572989273e-02
      - -1.1809741710258863e+00
      - 2.7178403183718180e-02
      - -1.0179792004357018e+00
      - 3.1914213461186863e-02
      - -6.1490157817296676e-01
      - 2.8455753438620120e-02
      - -8.0943940226886735e-01
      - 1.7492181782963499e-02
      - -1.0001717801644971e+00
      - 2.1184711495877803e-02
      - -7.4398189778097579e-01
      - 3.2163814207228018e-02
      - -6.0187731536297973e-01
      - 5.3213938921871998e-02
      - -1.2839838529960599e+00
      - 1.6986391309112794e-02
      - -1.5906662277385031e+00
      - 3.9165737262513933e-02
      - -1.4627045639029956e+00
      - 2.6436897466130888e-02
      - -6.7243950089594307e-01
      - 2.6047399531479123e-02
      - -7.2674823643275421e-01
      - 2.8017597534475466e-02
      - -7.0182694814082103e-01
      - 4.8662951596268933e-02
      - -7.9884330442191964e-01
      - 4.0682655608574314e-02
      - -7.6330329087374582e-01
      - 2.4413102539341869e-02
      - -9.5742870453795192e-01
      - 2.9413425942609366e-02
      - -1.0955773108524400e+00
      - 4.0799699435028806e-02
      - -8.6850845331992010e-01
      - 5.3029428274728237e-02
      - -5.8437379871061912e-01
      - 4.0979124330343980e-02
      - -5.2988847896464597e-01
      - 3.3586798922932981e-02
      - -6.6442004205960492e-01
      - 3.7882674978737332e-02
      - -5.2773191777310324e-01
      - 6.2882802666692203e-02
      - -5.9084930426426641e-01
      - 4.9028271264859848e-02
      - -8.2085947236512879e-01
      - 3.6850139186094172e-02
      - -7.6546130705371851e-01
      - 5.9097360583694060e-02
      - -5.0437549329845821e-01
      - 5.4193300235847806e-02
      - -4.3569267120305366e-01
      - 3.0235157670438502e-02
      - -6.3254344710531241e-01
      - 2.0476335990003765e-02
      - -7.4850131163459310e-01
      - 4.2842981314840684e-02
      - -4.9248219115376274e-01
      - 5.7881186360405380e-02
      - -3.6791803607307183e-01
      - 8.0157164998831437e-02
      - -5.7617922563516455e-01
      - 1.2309958920521525e-02
      - -9.9418153380885232e-01
      - 3.9048213944783992e-02
      - -7.3766328917473123e-01
      - 5.3650485868818092e-02
      - -5.6359569808728704e-01
      - 3.1706587665968872e-02
      - -6.6740797403811702e-01
      - 1.9772067903664124e-02
      - -8.0027934247701915e-01
      - 3.0988806902584935e-02
      - -6.1425338038589150e-01
      - 4.5492052614732506e-02
      - -5.8283877310360266e-01
      - 3.9293590808646917e-02
      - -9.7066840660964415e-01
      - 1.8056256902787685e-02
      - -1.3822869145777661e+00
      - 4.1463124067273358e-02
      - -9.1711504125038301e-01
      - 6.1133803343811383e-02
      - -6.9305153295706967e-01
      - 3.2010644328367845e-02
      - -5.2865103702690663e-01
      - 3.3588407278941954e-02
      - -5.6401919549589663e-01
      - 4.3498429497747418e-02
      - -5.2887199428944387e-01
      - 4.0975428031557841e-02
      - -6.1138584201542245e-01
      - 3.9275665918963795e-02
      - -1.1685482780840220e+00
      - 3.9443785170328594e-02
      - -1.0380354552745881e+00
      - 4.0082300162510610e-02
      - -8.0958309239130344e-01
      - 6.6910251769673773e-02
      - -5.3793192511856536e-01
      - 5.1673457805860787e-02
      - -4.6199140988804249e-01
      - 4.3069583174334347e-02
      - -5.2664292297329618e-01
      - 5.9372456305993193e-02
      - -5.2083164640702939e-01
      - 6.1820559443270334e-02
      - -4.8477111959475350e-01
      - 6.2579729559168504e-02
      - -8.3832053557975239e-01
      - 4.1754007035373714e-02
      - -8.9130335810164085e-01
      - 5.8953404037008127e-02
      - -4.3718910518533749e-01
      - 5.6594988147795573e-02
      - -3.3396646471372438e-01
      - 4.8356265992786189e-02
      - -4.1126764839409241e-01
      - 1.9166282072476067e-02
      - -6.2584552747550559e-01
      - 2.5111550881664932e-02
      - -6.0665528862636076e-01
      - 6.4350845559611319e-02
      - -3.3067414698453740e-01
      - 1.1863501257783829e-01
      - -4.3577811550869316e-01
      - 1.1476989511152554e-02
      - -1.2042884637544036e+00
      - 2.8350164896402557e-02
      - -9.6081796475629655e-01
      - 3.5258606499873148e-02
      - -5.2818090727037692e-01
      - 3.6119341512907084e-02
      - -5.0638601566610331e-01
      - 2.0419500992082160e-02
      - -6.4796535326359717e-01
      - 2.5586771311089364e-02
      - -5.5378893154496389e-01
      - 6.2634746556577831e-02
      - -4.6014833608891836e-01
      - 4.3087317798535127e-02
      - -7.0859440458779055e-01
      - 1.8439325892446620e-02
      - -1.5032614791921333e+00
      - 3.2715094170814481e-02
      - -1.1732086246206934e+00
      - 3.4180224062076742e-02
      - -5.3808471543269321e-01
      - 7.3919731492278193e-02
      - -5.2402502721258604e-01
      - 4.5820093233568275e-02
      - -4.3370306070585413e-01
      - 4.3107092278242970e-02
      - -4.9765217422209207e-01
      - 4.7368231454595240e-02
      - -5.5012807422020016e-01
      - 4.5102519262132129e-02
      - -9.0830221959580937e-01
      - 4.0532971701140785e-02
      - -9.7439658703336463e-01
      - 5.6451773062501528e-02
      - -9.7197656787812026e-01
      - 4.3421838898486359e-02
      - -4.5098523766843751e-01
      - 6.2648963396785898e-02
      - -4.0876897899487036e-01
      - 5.2179334578307299e-02
      - -4.2931709935221152e-01
      - 4.2941850843599444e-02
      - -4.4642518203741999e-01
      - 5.2708373863875016e-02
      - -4.4462905477249026e-01
      - 5.7188935860073106e-02
      - -7.8988678737427709e-01
      - 3.9197313516416886e-02
      - -1.0362062088003277e+00
      - 6.7516325506507727e-02
      - -4.1913600091663711e-01
      - 4.3335563820646315e-02
      - -3.6255991513313002e-01
      - 3.3872007733775099e-02
      - -5.8487902463073049e-01
      - 1.8649660258941887e-02
      - -7.4820221157655964e-01
      - 2.7190406200151451e-02
      - -6.4153205915802880e-01
      - 5.9941909000152255e-02
      - -3.0089651349581381e-01
      - 1.2637762686133538e-01
      - -5.1051556197450332e-01
      - 1.2209540927994932e-02
      - -1.3793154652319028e+00
      - 5.4425229505407097e-02
      - -1.3105164173975254e+00
      - 2.9540095102127736e-02
      - -4.7936847398403326e-01
      - 2.5054428963910417e-02
      - -5.5640677392129767e-01
      - 1.8225890756741664e-02
      - -7.9237511200844202e-01
      - 2.4737427694674938e-02
      - -6.7158442315642264e-01
      - 4.3305876539101618e-02
      - -5.5354343180178400e-01
      - 2.9548305987403319e-02
      - -1.1711076125502524e+00
      - 1.7239278543183585e-02
      - -1.7368999847072888e+00
      - 2.6958289329753488e-02
      - -9.4620926409877337e-01
      - 3.5844849930043797e-02
      - -6.1255654434906526e-01
      - 4.9859845503412575e-02
      - -5.6672378849423399e-01
      - 3.5053705422291095e-02
      - -5.4038236972779441e-01
      - 2.8896641485163466e-02
      - -5.7020798494980973e-01
      - 3.0070433032521503e-02
      - -6.7554269852268611e-01
      - 3.5668649704693307e-02
      - -1.4963175128592627e+00
      - 3.3870682068685792e-02
      - -1.0741365808514911e+00
      - 3.8632228698158702e-02
      - -8.4990903135949147e-01
      - 5.9026974327120688e-02
      - -5.4117800224667079e-01
      - 5.1893566836448891e-02
      - -3.9613802010794152e-01
      - 5.3839727699268862e-02
      - -5.4372794310152717e-01
      - 4.3429015636058700e-02
      - -5.0910846052567826e-01
      - 5.6361607142857137e-02
      - -6.4397321428571419e-01
      - 5.0677785453997537e-02
      - -9.0617901514771837e-01
      - 3.7170354617310462e-02
      - -9.9366294521523013e-01
      - 6.4688934521223346e-02
      - -4.7011562315423699e-01
      - 4.4221216502867047e-02
      - -3.4720222462152045e-01
      - 2.9482533581953733e-02
      - -5.7797442071552863e-01
      - 2.0386254027173017e-02
      - -7.1210598225610311e-01
      - 3.5664130849449978e-02
      - -5.5826723636614273e-01
      - 4.3706090628732062e-02
      - -2.9772069656007583e-01
      - 1.1043733536968386e-01
      - -5.0079504553777432e-01
      - 1.2187994066366593e-02
      - -1.3636072569301239e+00
      - 2.7316413503441651e-02
      - -1.0934679187565801e+00
      - 4.0304035872678272e-02
      - -5.1078382096067521e-01
      - 3.1390013093037523e-02
      - -6.3370531382874762e-01
      - 1.8971715439376959e-02
      - -7.6844839467813009e-01
      - 2.4693291577011237e-02
      - -6.1097560050446620e-01
      - 2.9381311254159236e-02
      - -5.1722743970193186e-01
      - 5.0721579353768566e-02
      - -1.1957235687259697e+00
      - 1.7057927700858014e-02
      - -1.7726733579030272e+00
      - 3.4940651125706920e-02
      - -1.3536907708405068e+00
      - 2.8416017381384773e-02
      - -6.0236329914400788e-01
      - 2.9842124750652486e-02
      - -5.3863557842019283e-01
      - 3.8465253594480664e-02
      - -5.2899244794785782e-01
      - 4.0101466633452640e-02
      - -5.6062644442014975e-01
      - 3.5023204680705321e-02
      - -7.0843967487802950e-01
      - 2.6447681254154410e-02
      - -9.4949794284716726e-01
      - 3.4287749239085737e-02
      - -1.0075845518970938e+00
      - 4.3829069874210078e-02
      - -8.1235662182694313e-01
      - 5.9614759240296133e-02
      - -5.8847440557005193e-01
      - 4.8020510555185580e-02
      - -4.7640150075540544e-01
      - 4.2159692496767036e-02
      - -4.9506331981352181e-01
      - 4.9461324300687094e-02
      - -5.0195898423964624e-01
      - 6.1161595308990603e-02
      - -7.3393914370788726e-01
      - 5.3378786953012972e-02
      - -1.0184249748361980e+00
      - 4.2665176877808256e-02
      - -8.7738190470502719e-01
      - 1.1033132816087328e-01
      - -3.9107540080784786e-01
      - 7.6444679750697603e-02
      - -3.6254457030281334e-01
      - 3.5737605749356215e-02
      - -5.5127910650987111e-01
      - 2.2150058102570862e-02
      - -5.7677874069070656e-01
      - 6.9227919810568278e-02
      - -4.9282053805741183e-01
      - 5.2738861107481022e-02
      - -3.5611785421091147e-01
      - 5.1351151354940040e-02
      - -4.6317721667673639e-01
      - 1.1729835925583243e-02
      - -1.2527697042501629e+00
      - 4.8354603405762135e-02
      - -8.8618189013926441e-01
      - 7.0504532047181948e-02
      - -4.3978074445271909e-01
      - 3.9927661074993029e-02
      - -4.9454954460214134e-01
      - 2.2271947770632232e-02
      - -5.8017321370825148e-01
      - 4.4744103633996522e-02
      - -5.6882603035694590e-01
      - 3.4388156422165805e-02
      - -5.1548186953622810e-01
      - 3.3633453214239217e-02
      - -1.0759374983683854e+00
      - 1.7496906283271715e-02
      - -1.4756301754545393e+00
      - 4.2499821112417555e-02
      - -9.4299108032601731e-01
      - 6.6147685708965467e-02
      - -5.9467424379941236e-01
      - 4.4118813426417554e-02
      - -4.0798981921063360e-01
      - 4.1725143534732972e-02
      - -4.3625496606611902e-01
      - 3.8816547422227149e-02
      - -4.8270874814175546e-01
      - 3.3905093050047033e-02
      - -6.1499139076916987e-01
      - 3.3587437780338007e-02
      - -1.1120434845292109e+00
      - 4.1244909448875919e-02
      - -8.9432031379245802e-01
      - 5.0903727746416126e-02
      - -7.2676411297358468e-01
      - 7.3955749493449310e-02
      - -5.2428036274564072e-01
      - 5.4959966027753951e-02
      - -4.5600447060651300e-01
      - 4.9285910927276522e-02
      - -4.7529185389274586e-01
      - 4.7090632908081832e-02
      - -4.8629237745672621e-01
      - 5.0595208572459152e-02
      - -5.3350393197692070e-01
      - 5.2369847680232944e-02
      - -7.5443691460137552e-01
      - 3.5457586500280108e-02
      - -1.0535467038350554e+00
      - 6.8057877635626457e-02
      - -5.5726598816498096e-01
      - 6.3626923299070937e-02
      - -3.3892361123663528e-01
      - 5.1473029390760511e-02
      - -3.5113779455677219e-01
      - 2.5875304199625190e-02
      - -4.5883831506464073e-01
      - 3.3450178920111096e-02
      - -4.0603880550550697e-01
      - 6.2316859024094395e-02
      - -3.0603130768268139e-01
      - 6.8669582021537598e-02
      - -3.9230048342997220e-01
      - 1.2151034197659708e-02
      - -1.5103374585883165e+00
      - 2.8013163683217133e-02
      - -9.6104566497373622e-01
      - 3.1512123945242235e-02
      - -4.8328990090277446e-01
      - 3.3585844419038113e-02
      - -4.6222102715309876e-01
      - 2.5217995031701572e-02
      - -4.7689475753019805e-01
      - 3.4499888070856438e-02
      - -4.0409274839428877e-01
      - 1.0221960008900788e-01
      - -3.9167312113312919e-01
      - 4.3731262805060421e-02
      - -7.4862726128662838e-01
      - 1.8047738222842460e-02
      - -1.5910600112493987e+00
      - 3.7091035572198804e-02
      - -1.1443135330987273e+00
      - 3.9714207718156008e-02
      - -6.4250510308383080e-01
      - 4.5545963735541796e-02
      - -5.0010370081896882e-01
      - 4.5628136165031252e-02
      - -4.5402254302828132e-01
      - 5.3058279835580792e-02
      - -3.7298394735903329e-01
      - 7.5882002477071900e-02
      - -4.4627633139980899e-01
      - 4.7441698457353500e-02
      - -9.1125638621055238e-01
      - 4.1543128276616020e-02
      - -8.2798333882007968e-01
      - 6.5492355772079486e-02
      - -8.1897866673402364e-01
      - 9.4321370479834118e-02
      - -7.5924033861490225e-01
      - 5.4747026731799486e-02
      - -5.2687237607236737e-01
      - 4.7730620248868282e-02
      - -5.2976262672258756e-01
      - 6.4064270898454068e-02
      - -4.5162139484850788e-01
      - 9.3430768126523428e-02
      - -6.8454226152106279e-01
      - 6.0699899549871643e-02
      - -7.7467495564143118e-01
      - 3.5146334887073881e-02
      - -1.1935834521055784e+00
      - 8.6345414802980261e-02
      - -6.0356299852380257e-01
      - 4.0094173312275966e-02
      - -3.5092325948566294e-01
      - 3.1366377947310876e-02
      - -4.7111678560465942e-01
      - 2.3770744583013755e-02
      - -5.5308168089190424e-01
      - 3.0581335944573924e-02
      - -4.6144510870822431e-01
      - 6.6711165791397395e-02
      - -3.6195761241273045e-01
      - 7.5992795381232228e-02
      - -4.6799523492204403e-01
      - 1.2595379989875978e-02
      - -1.6055991818777546e+00
      - 4.8412217674046805e-02
      - -1.2663869217310064e+00
      - 2.8210001465990935e-02
      - -4.7789418325059896e-01
      - 2.3843419762138499e-02
      - -5.5099546262209165e-01
      - 1.8767676900839799e-02
      - -6.3772937746219993e-01
      - 2.8611941643645777e-02
      - -5.2492997886807558e-01
      - 8.5601643207493763e-02
      - -4.9750657982969149e-01
      - 3.0950850558703721e-02
      - -1.1752129890359284e+00
      - 2.1760103930760610e-02
      - -2.5965621046883851e+00
      - 2.7226861091523655e-02
      - -9.4889654497191356e-01
      - 3.9786838351911831e-02
      - -5.6568217696381573e-01
      - 5.5555589173420419e-02
      - -5.5445578105750282e-01
      - 3.8319302749659993e-02
      - -4.5565824358754115e-01
      - 3.4707907878734304e-02
      - -4.7422686012528059e-01
      - 4.5273448321003940e-02
      - -6.6475766198068165e-01
      - 3.7567308278622036e-02
      - -1.6418029578399769e+00
      - 3.4988911273797316e-02
      - -9.2703293632358030e-01
      - 5.3237101449564846e-02
      - -7.5796982063835894e-01
      - 7.2333500480804613e-02
      - -5.5933132550008313e-01
      - 4.6278381857197265e-02
      - -4.4170653574592239e-01
      - 4.3555154999737548e-02
      - -5.6319834088769549e-01
      - 3.9420302447633858e-02
      - -5.3275953307940804e-01
      - 5.3438420406864098e-02
      - -7.6083612420861957e-01
      - 4.8947185542054086e-02
      - -9.1981938771107585e-01
      - 3.4638916351687962e-02
      - -1.1897267408317380e+00
      - 5.1081553624898732e-02
      - -4.1522728243605794e-01
      - 5.6407084689035936e-02
      - -3.7418561130350569e-01
      - 3.1867167513499391e-02
      - -4.8368680988311452e-01
      - 2.4503727182426605e-02
      - -5.3422977480894440e-01
      - 3.7646930439842720e-02
      - -5.1102912507944920e-01
      - 6.3097499426803191e-02
      - -3.9170427861985746e-01
      - 6.9557645041248409e-02
      - -5.2202668258679497e-01
      - 1.2601555938532577e-02
      - -1.6162431250272378e+00
      - 3.1393570254450130e-02
      - -1.1957531165234621e+00
      - 9.0012605824111372e-02
      - -4.4471574560625321e-01
      - 3.5160345363523623e-02
      - -4.7727557914248403e-01
      - 1.9746625599124490e-02
      - -6.1058130441649294e-01
      - 2.2523274825045278e-02
      - -5.8872718354573794e-01
      - 2.7712963230580302e-02
      - -5.2627191560646558e-01
      - 4.4153825025302566e-02
      - -1.2214434368385680e+00
      - 2.1981734163308342e-02
      - -2.6863420275021275e+00
      - 3.3696088709150362e-02
      - -1.4799589060771388e+00
      - 6.7334949391511661e-02
      - -6.4668218722540904e-01
      - 7.0170739609924287e-02
      - -5.5163927970574145e-01
      - 3.7423766555015572e-02
      - -4.6909394513514568e-01
      - 3.8439342628630961e-02
      - -5.6326957515221610e-01
      - 3.6654520573497842e-02
      - -6.8808882185496933e-01
      - 2.6184531370268983e-02
      - -9.6986467184332925e-01
      - 3.7408243842512560e-02
      - -1.0096522050959331e+00
      - 6.3179812520350126e-02
      - -1.0183835127042575e+00
      - 5.2604052508690477e-02
      - -4.9218643188824263e-01
      - 6.4986514833904926e-02
      - -5.5270709150816166e-01
      - 3.9921266695732247e-02
      - -5.8775171857974107e-01
      - 4.4249030784795862e-02
      - -6.0546693608502855e-01
      - 7.2121003374276377e-02
      - -9.1043840893269679e-01
      - 6.7860960108721960e-02
      - -1.1267606940824428e+00
      - 3.6944987082300706e-02
      - -1.0564071553830143e+00
      - 5.5876901725063786e-02
      - -4.2322603781855245e-01
      - 5.8903294273431370e-02
      - -3.5341976564058819e-01
      - 3.3540131112318496e-02
      - -4.2207432320551291e-01
      - 2.9359837415540255e-02
      - -4.7208293032512250e-01
      - 6.8478872810979252e-02
      - -4.6782596276807609e-01
      - 6.0537939257388158e-02
      - -3.4164975620506188e-01
      - 5.9070893303008833e-02
      - -6.1761250819779534e-01
      - 1.2552756708934295e-02
      - -1.6042671643457811e+00
      - 4.2656591569386865e-02
      - -8.8058409328882781e-01
      - 6.5416126774897013e-02
      - -3.6658938370882876e-01
      - 4.6247922848574562e-02
      - -4.4050001762701707e-01
      - 2.6318508969728906e-02
      - -4.3907611499003174e-01
      - 4.3216807542478537e-02
      - -4.4029796991297437e-01
      - 4.6168014450510372e-02
      - -5.1607612192699215e-01
      - 2.6460891687805410e-02
      - -1.0228051598929933e+00
      - 1.7908562600322087e-02
      - -1.6435095717067862e+00
      - 4.1181735127032035e-02
      - -1.0132337801056892e+00
      - 7.3156221680535025e-02
      - -4.9760717123294612e-01
      - 5.8554040457108249e-02
      - -4.2379211459550625e-01
      - 3.9131382127672809e-02
      - -4.4671765933868068e-01
      - 4.8526823255666762e-02
      - -4.1752286543737044e-01
      - 4.8248762429321392e-02
      - -6.0860320133619261e-01
      - 4.1020939136500172e-02
      - -1.2298158782705200e+00
      - 4.4796277342595801e-02
      - -8.7419269942828048e-01
      - 5.1386217810909435e-02
      - -8.5423227430214799e-01
      - 5.1700042787289374e-02
      - -5.1444101981411705e-01
      - 4.8315006981896259e-02
      - -4.6114521515394052e-01
      - 4.2380240421209227e-02
      - -5.4297060500044303e-01
      - 6.7683242696210663e-02
      - -5.8837511967597000e-01
      - 8.1797440206602581e-02
      - -6.3332275486696255e-01
      - 8.9448997673674827e-02
      - -9.4054292603408585e-01
      - 2.9474794075703307e-02
      - -8.7023599934403228e-01
      - 4.8474515321925885e-02
      - -5.4041885398503509e-01
      - 5.2455805760748202e-02
      - -3.7913602183511075e-01
      - 4.0859403870529644e-02
      - -4.3691243742744573e-01
      - 2.6557898826937449e-02
      - -4.7541268395151398e-01
      - 3.6599195173998338e-02
      - -5.0441663051688801e-01
      - 5.5253443493735545e-02
      - -3.5559146802899116e-01
      - 6.8140599469449212e-02
      - -4.8170681209095778e-01
      - 1.2025228059477373e-02
      - -1.4495757586548221e+00
      - 2.5298326432927270e-02
      - -9.4806104503593780e-01
      - 4.3076931412609924e-02
      - -5.3739538197909409e-01
      - 4.3525410519172386e-02
      - -5.5462577562549364e-01
      - 2.7322128009604648e-02
      - -4.8530591731911621e-01
      - 4.0901778543267250e-02
      - -4.5356427691543877e-01
      - 5.4698769291965210e-02
      - -3.5418807046480444e-01
      - 4.9922528725831340e-02
      - -9.1392827340655602e-01
      - 1.8300448284990719e-02
      - -1.6869027082501347e+00
      - 3.4335890171237365e-02
      - -1.3316206118884828e+00
      - 5.1411056212740371e-02
      - -6.6579862897291497e-01
      - 5.0959626530220049e-02
      - -4.0010875087588610e-01
      - 5.6602399757355322e-02
      - -3.9901889729937612e-01
      - 6.4151414482403107e-02
      - -4.2428856311133933e-01
      - 4.8948208703227115e-02
      - -4.0854792016653918e-01
      - 6.0702048222763504e-02
      - -1.1893995389390988e+00
      - 4.1763172610856700e-02
      - -8.0879965967164058e-01
      - 5.8022754159133293e-02
      - -9.1227855054162044e-01
      - 6.1171847555843456e-02
      - -5.7780141156707576e-01
      - 7.3022105987212510e-02
      - -5.7044001607832351e-01
      - 9.1695800334672811e-02
      - -6.3369968944160027e-01
      - 5.2827403638449524e-02
      - -4.5034053992777268e-01
      - 4.8242091315776899e-02
      - -5.1203487020309746e-01
      - 4.9165133653887381e-02
      - -7.0680964421232162e-01
      - 2.9598869515965416e-02
      - -1.0459244089354511e+00
      - 6.1241213480863511e-02
      - -5.4874552673447008e-01
      - 4.3748481577496813e-02
      - -3.5431938544942965e-01
      - 3.8385925171305034e-02
      - -4.8001409397384415e-01
      - 2.5679658462445118e-02
      - -5.5122276778793089e-01
      - 2.8393120247195505e-02
      - -5.2007200452783842e-01
      - 3.8214984870522654e-02
      - -3.8366331345257398e-01
      - 7.4333219185629643e-02
      - -5.6007504752736792e-01
      - 1.2557791598115044e-02
      - -1.5647505669532460e+00
      - 5.1292235882626734e-02
      - -1.3848903688309218e+00
      - 2.8516936358526850e-02
      - -5.3504548910305327e-01
      - 2.2328028032640126e-02
      - -5.9202434724168573e-01
      - 1.9718509571307694e-02
      - -6.5734872996626736e-01
      - 2.9818117876228938e-02
      - -5.2580265284716576e-01
      - 4.5399847929945905e-02
      - -4.3961436906422863e-01
      - 3.2202333618122116e-02
      - -1.0789375937002499e+00
      - 2.1188857402517036e-02
      - -2.5865091377785401e+00
      - 2.6455355742434811e-02
      - -1.0715728746762456e+00
      - 3.7925312856791828e-02
      - -6.6012574259643597e-01
      - 4.8010917439483616e-02
      - -5.4475753847176456e-01
      - 7.5063709959500430e-02
      - -6.2280583114912236e-01
      - 4.0805093290168064e-02
      - -4.4037179887409100e-01
      - 3.3920034530685879e-02
      - -5.6690117116631455e-01
      - 4.2230044316732676e-02
      - -1.7807698885640046e+00
      - 3.5359130464334844e-02
      - -1.0355674050841828e+00
      - 5.1798113961065768e-02
      - -8.3441120212528719e-01
      - 5.5673525435127338e-02
      - -6.2122834817216344e-01
      - 4.6390846216736545e-02
      - -5.8976085685435375e-01
      - 4.1822028634664034e-02
      - -5.4865532614782020e-01
      - 6.0269031313017703e-02
      - -6.5937900594935206e-01
      - 3.8957039549571283e-02
      - -5.3267001601938557e-01
      - 4.3673243057652064e-02
      - -7.8655078338484263e-01
      - 3.0334699384416654e-02
      - -1.0361852760023511e+00
      - 4.8021064179631222e-02
      - -4.0366221275749409e-01
      - 5.9298875997696919e-02
      - -4.1685348473628525e-01
      - 3.6723761982037785e-02
      - -4.6504645123788441e-01
      - 2.5965880732312763e-02
      - -5.5890915556483112e-01
      - 3.0389424207621103e-02
      - -4.8833698503929757e-01
      - 3.8765204179446622e-02
      - -3.5157353493438714e-01
      - 4.9264271991487779e-02
      - -4.1264924856236301e-01
      - 1.2589374871133759e-02
      - -1.5790316917576481e+00
      - 3.7227854707290731e-02
      - -1.2347852798952867e+00
      - 1.0517136552224808e-01
      - -5.6334365096570505e-01
      - 3.4226725791159443e-02
      - -5.0187901877927854e-01
      - 1.9041838346365816e-02
      - -6.7098913539322713e-01
      - 2.1633371443860544e-02
      - -6.3657801912033207e-01
      - 2.9554542034785112e-02
      - -5.3812676041554275e-01
      - 4.7198529112985457e-02
      - -1.3841786458679497e+00
      - 2.2117634909319575e-02
      - -2.7638284177279444e+00
      - 3.8072968240296302e-02
      - -1.5971798656845093e+00
      - 5.5052424063975258e-02
      - -6.4155151607226613e-01
      - 7.8753065072620643e-02
      - -5.1618345621856299e-01
      - 5.0104680338384742e-02
      - -4.4697343549390744e-01
      - 4.6244955875667272e-02
      - -6.2407796889638112e-01
      - 3.2706341553892924e-02
      - -6.5024092911105935e-01
      - 2.3936653589221268e-02
      - -1.0671955555669641e+00
      - 4.0725303215413393e-02
      - -1.0044230723722254e+00
      - 4.8291364215340367e-02
      - -8.1186867760047465e-01
      - 6.6010844218590492e-02
      - -7.1435497753385546e-01
      - 4.3077041116296781e-02
      - -5.1564497732280012e-01
      - 3.9838647685051159e-02
      - -6.0073525172606845e-01
      - 4.0894670067805582e-02
      - -6.3487963035959549e-01
      - 4.6403476735311013e-02
      - -6.7124237138900378e-01
      - 6.4745319075420749e-02
      - -9.8592376968313966e-01
      - 3.3640265680089251e-02
      - -9.2294233860918140e-01
      - 5.9181933866187482e-02
      - -4.3888384619578641e-01
      - 7.3478392759169953e-02
      - -4.4305288307261881e-01
      - 5.0018930459197510e-02
      - -4.5957987590232957e-01
      - 3.0043265949567383e-02
      - -4.3607354338678994e-01
      - 6.1436500564812709e-02
      - -4.2823065740225885e-01
      - 6.9657060882897706e-02
      - -3.7449291147934116e-01
      - 6.6030195876243772e-02
      - -5.1385875206660991e-01
      - 1.2084501065453241e-02
      - -1.4534902865656036e+00
      - 4.1680998406734379e-02
      - -7.9193896972795319e-01
      - 5.2000076993406960e-02
      - -3.6503024344876767e-01
      - 4.4266622079623542e-02
      - -4.2732630225379165e-01
      - 3.3033581101063594e-02
      - -4.1766220857483377e-01
      - 5.2172386468782368e-02
      - -5.2482321437903845e-01
      - 4.2701203324306637e-02
      - -4.9127523032519121e-01
      - 3.2945042165080880e-02
      - -1.1243718845844930e+00
      - 1.8600715297960400e-02
      - -1.6694602393664459e+00
      - 3.5784697634870417e-02
      - -9.8673646448627828e-01
      - 4.9093734692711846e-02
      - -4.9725634248162587e-01
      - 4.2975602971268921e-02
      - -3.6976038596071970e-01
      - 1.1337584690440165e-01
      - -4.7483151723328615e-01
      - 5.0088731868538940e-02
      - -4.0120578298661386e-01
      - 4.1637460131230715e-02
      - -5.3881346922295592e-01
      - 3.8160888860637517e-02
      - -1.2158588153815004e+00
      - 5.6348606187194124e-02
      - -7.8441723068509839e-01
      - 3.8678466274596396e-02
      - -7.0540331562184710e-01
      - 5.7656066008882463e-02
      - -6.6047592447799019e-01
      - 3.9878773893302071e-02
      - -4.4182522759014869e-01
      - 5.5020262956873546e-02
      - -4.9300334629673820e-01
      - 5.4350395699094077e-02
      - -4.8215796580582471e-01
      - 7.3132590724199989e-02
      - -6.7846769810470686e-01
      - 9.3743422106509683e-02
      - -9.7084771805355574e-01
      - 3.6768184139751019e-02
      - -1.2271836508425811e+00
      - 4.7264799717251491e-02
      - -5.3675965619492538e-01
      - 8.0470194418935839e-02
      - -3.1550690089008504e-01
      - 1.0427531944010669e-01
      - -2.9733952474010622e-01
      - 7.2557471264367818e-02
      - -3.0316091954022989e-01
      - 5.9641028794138636e-02
      - -4.0331507590491766e-01
      - 4.7020891818257526e-02
      - -3.8501264884850467e-01
      - 4.4438370812538333e-02
      - -4.6594291772750585e-01
      - 1.2995346473610550e-02
      - -1.7350717544221610e+00
      - 2.8553936503501829e-02
      - -9.9345082052777656e-01
      - 4.2806918089171572e-02
      - -4.2806918089171575e-01
      - 4.6331172146514624e-02
      - -3.6789703031192800e-01
      - 5.5482949146121903e-02
      - -3.5377246782279709e-01
      - 5.3494607153043348e-02
      - -3.8505524158675758e-01
      - 5.1823118151745777e-02
      - -3.9867883964263828e-01
      - 3.4844614924705974e-02
      - -8.0211613564298401e-01
      - 1.7946723226214441e-02
      - -1.8056891230177341e+00
      - 4.0818113943297610e-02
      - -1.3219410961240246e+00
      - 3.7512284816443947e-02
      - -5.8236893655627830e-01
      - 5.9930089243943364e-02
      - -3.8687542759456511e-01
      - 8.6489595175511608e-02
      - -3.1855573668604276e-01
      - 5.6252318462117187e-02
      - -3.6034901034643391e-01
      - 4.9509744437578461e-02
      - -4.8823470752305098e-01
      - 3.7698410137870911e-02
      - -9.0812110757861308e-01
      - 3.7439282884891463e-02
      - -7.8325945282946197e-01
      - 5.1679274839963048e-02
      - -8.0281962597922796e-01
      - 5.8809517363688016e-02
      - -6.4515787365313193e-01
      - 7.3016114060271239e-02
      - -5.5376577594225507e-01
      - 5.6025357649527520e-02
      - -4.0937340539951794e-01
      - 7.2866831551121919e-02
      - -5.3026852663440205e-01
      - 5.3711658393883158e-02
      - -5.4137097272250545e-01
      - 4.7020891818257540e-02
      - -6.9646786297141861e-01
      - 3.0543098457826982e-02
      - -1.3484324358757476e+00
      - 3.8791637110845913e-02
      - -5.2157468511414606e-01
      - 4.5962320268587806e-02
      - -3.3629856117313256e-01
      - 4.9150752117202962e-02
      - -3.7374037253477099e-01
      - 4.6465840286771455e-02
      - -4.3015406602110212e-01
      - 4.6600578461810489e-02
      - -3.4835085879868238e-01
      - 5.7529305867788733e-02
      - -3.6226374784072907e-01
      - 4.8003834813001779e-02
      - -5.2281404251784125e-01
      - 1.3961676352301876e-02
      - -1.9329318854874962e+00
      - 4.8950715144377058e-02
      - -1.4030922806234811e+00
      - 2.8827248616288478e-02
      - -4.5410052028232645e-01
      - 2.4164153738107944e-02
      - -4.9404928187319708e-01
      - 2.1952036346468154e-02
      - -5.2945703504946950e-01
      - 3.8370426207524747e-02
      - -4.5246710508081162e-01
      - 6.1079628452110783e-02
      - -3.7071101228855358e-01
      - 3.1284892848265307e-02
      - -1.2885658836513236e+00
      - 2.3770529964426454e-02
      - -3.1353564374860321e+00
      - 2.7044323092501814e-02
      - -1.1064073566160146e+00
      - 3.6630608278339249e-02
      - -6.0857584842626988e-01
      - 7.2346823115537681e-02
      - -5.2720061201025481e-01
      - 5.8060898792634277e-02
      - -3.8113243464867846e-01
      - 6.5011604469496068e-02
      - -4.6666745782559060e-01
      - 4.4364700768359820e-02
      - -5.5521764129907736e-01
      - 4.0134006365922903e-02
      - -1.7500016241141036e+00
      - 3.5439176786593113e-02
      - -9.7826163248536235e-01
      - 5.7219323689033201e-02
      - -9.6083141560990404e-01
      - 5.6234354270427216e-02
      - -6.7759613016940512e-01
      - 5.6016343847086376e-02
      - -5.6238190753411477e-01
      - 4.7287017676030454e-02
      - -4.9300227339465413e-01
      - 4.8993210715499162e-02
      - -5.4668661857789658e-01
      - 5.5923992478228546e-02
      - -6.3066759834358732e-01
      - 4.2291915102642401e-02
      - -7.7549135415934378e-01
      - 3.0965844616728220e-02
      - -1.3180412475971746e+00
      - 4.1827788041892876e-02
      - -5.5577120348732911e-01
      - 6.4838775666011608e-02
      - -3.6271196288412433e-01
      - 5.3722097090272085e-02
      - -3.3456632742357567e-01
      - 4.5554097990639045e-02
      - -4.1539924999384714e-01
      - 4.5772375157432731e-02
      - -3.9790242958639543e-01
      - 5.1778615657145664e-02
      - -3.9372254281869179e-01
      - 4.5507149861612736e-02
      - -5.2130467712758355e-01
      - 1.4037129773145080e-02
      - -1.9519949273645805e+00
      - 2.7191517701701088e-02
      - -1.2093494803568445e+00
      - 6.3527666769964825e-02
      - -4.2708203699808034e-01
      - 4.4971097910376123e-02
      - -4.3679848564434631e-01
      - 2.3286958920087648e-02
      - -5.0977689279518601e-01
      - 2.3683636475873102e-02
      - -4.8445933622924581e-01
      - 2.9428027494234413e-02
      - -4.7113980651660436e-01
      - 5.2871958376837010e-02
      - -1.5160117966269304e+00
      - 2.3456284682696279e-02
      - -3.0509426918473368e+00
      - 3.6855482331324192e-02
      - -1.5446461060247059e+00
      - 4.4570058065064470e-02
      - -5.6308310981210163e-01
      - 4.9559237764119746e-02
      - -3.4151712360225089e-01
      - 5.9794013000767164e-02
      - -3.8718103467823495e-01
      - 7.1864008475321400e-02
      - -5.3435515212837992e-01
      - 3.3876237188570711e-02
      - -5.3833030383817815e-01
      - 2.5588331463550405e-02
      - -1.0850972639444196e+00
      - 3.5997946541751355e-02
      - -9.7230097193958109e-01
      - 6.8995541798353266e-02
      - -9.5569072253362597e-01
      - 4.5367931392942887e-02
      - -5.6417942405481458e-01
      - 5.2755175241561411e-02
      - -5.5889146047990801e-01
      - 4.5613448502006743e-02
      - -5.0174793352207414e-01
      - 7.0062974399707365e-02
      - -7.1589098594552480e-01
      - 5.9497304677421640e-02
      - -6.5800484479881161e-01
      - 4.3497937344394534e-02
      - -7.9545237896135346e-01
      - 3.1277355407195541e-02
      - -1.0745784481482032e+00
      - 9.8722954769603299e-02
      - -5.9136027361990096e-01
      - 9.5841733874422741e-02
      - -3.6533730239260154e-01
      - 4.9267612730084509e-02
      - -3.0243485042230095e-01
      - 5.9284654359711760e-02
      - -3.2166327315962423e-01
      - 4.7223936360756107e-02
      - -3.6049163301131643e-01
      - 5.3535021119140838e-02
      - -3.6679440212322240e-01
      - 6.2232481096409289e-02
      - -6.9379973974808773e-01
      - 1.3399336523209539e-02
      - -1.8053284297805485e+00
      - 4.3679360595169747e-02
      - -8.9088596857474933e-01
      - 9.5333940588243168e-02
      - -3.4829924828773989e-01
      - 6.7204454226674371e-02
      - -3.3269531795383350e-01
      - 4.6408639613817963e-02
      - -3.5151098321357166e-01
      - 4.3294448275397655e-02
      - -4.3551643017627739e-01
      - 5.0085393738612885e-02
      - -4.7110023813546770e-01
      - 2.7352722234136935e-02
      - -1.0637771577791078e+00
      - 1.9184610882702666e-02
      - -1.9611990828109409e+00
      - 5.0583201919809355e-02
      - -1.1263526843331806e+00
      - 6.5224849343503991e-02
      - -4.4494971482845791e-01
      - 7.7222948250657855e-02
      - -3.5323764447330619e-01
      - 6.4176170751331182e-02
      - -3.1452677744464291e-01
      - 1.0487283538275655e-01
      - -4.7348527657957407e-01
      - 5.4232176638643562e-02
      - -6.1481031931927599e-01
      - 2.9615745298407100e-02
      - -1.1614650210593123e+00
      - 5.0222881337063777e-02
      - -8.8760240778870148e-01
      - 6.6366527706208447e-02
      - -8.0296927581174971e-01
      - 8.9614540335407569e-02
      - -6.4593450855620504e-01
      - 5.0510204091943976e-02
      - -4.5559203888872241e-01
      - 4.8365313471217003e-02
      - -4.4965375593537393e-01
      - 9.0224328146546628e-02
      - -6.5122312097853952e-01
      - 6.0153157719731870e-02
      - -6.4083958125179696e-01
      - 5.9498068617362503e-02
      - -8.3474023000794717e-01
      - 2.8676418844557079e-02
      - -1.0774951437138032e+00
      - 4.4872387747901539e-02
      - -6.1888352606759256e-01
      - 1.0075826861035828e-01
      - -3.6911444936467885e-01
      - 5.1460587435570533e-02
      - -3.3372955218117528e-01
      - 5.0530415831845289e-02
      - -3.4170568329851814e-01
      - 6.8487121915786084e-02
      - -3.0446255188304905e-01
      - 7.5507524097132503e-02
      - -3.7828521973414897e-01
      - 4.3654669345149298e-02
      - -4.4259783573695921e-01
      - 1.3844924947163099e-02
      - -1.8265705437717652e+00
      - 2.6276778528755092e-02
      - -1.1582595842576007e+00
      - 5.5367365367586310e-02
      - -5.2955321727810267e-01
      - 4.7046074368306226e-02
      - -4.0385095522100489e-01
      - 3.8442165823857462e-02
      - -3.6272657455580359e-01
      - 5.6412381151229575e-02
      - -3.2115959566294061e-01
      - 6.5294024424336572e-02
      - -3.9628947497146849e-01
      - 3.6802438628200707e-02
      - -8.6212445340913735e-01
      - 1.8818607281959766e-02
      - -1.8069589447568892e+00
      - 3.3467491881188680e-02
      - -1.2525457357514180e+00
      - 5.1793822989088356e-02
      - -7.1485731927514029e-01
      - 5.6407471755341144e-02
      - -4.4567487584913101e-01
      - 4.9930836840719320e-02
      - -3.9944669472575456e-01
      - 8.2256939729197315e-02
      - -4.5526365652100292e-01
      - 5.4066415291121606e-02
      - -4.6679122904809944e-01
      - 2.9774667624861268e-02
      - -7.8858649402479097e-01
      - 5.9561909817678650e-02
      - -9.9662997615719717e-01
      - 6.1519412396686145e-02
      - -8.9599064985668631e-01
      - 6.6986408496316721e-02
      - -6.7782286617065035e-01
      - 5.5587957855542360e-02
      - -5.3826755230416268e-01
      - 5.0677645107680858e-02
      - -4.9774479155266743e-01
      - 5.0979837301108888e-02
      - -5.2948365672141806e-01
      - 5.2605793498586607e-02
      - -5.7605948128155238e-01
      - 4.3481431648668439e-02
      - -6.4275027179665323e-01
      - 2.9190758760089482e-02
      - -1.2491332610010568e+00
      - 5.1073219424706370e-02
      - -5.1174354512676090e-01
      - 7.5127684163705979e-02
      - -3.6671235933373314e-01
      - 4.0513890675865236e-02
      - -4.1436484225909687e-01
      - 3.2709957032322295e-02
      - -4.7024611495972252e-01
      - 4.3388346394216334e-02
      - -4.0295315760173189e-01
      - 4.5989118893897341e-02
      - -3.4969943871795206e-01
      - 3.8847251468913463e-02
      - -4.6501313887045920e-01
      - 1.4526326345044581e-02
      - -1.9806142583921675e+00
      - 4.1681296550369604e-02
      - -1.4023073829520389e+00
      - 2.8672972716990673e-02
      - -5.0674511187948867e-01
      - 2.4354089439937075e-02
      - -5.3193189410397212e-01
      - 2.3786573902826395e-02
      - -5.2377564712758318e-01
      - 5.2246424036215822e-02
      - -5.0487633524105580e-01
      - 6.1138372966671482e-02
      - -4.3220592374458849e-01
      - 2.7135166883486023e-02
      - -1.2084552538803974e+00
      - 2.3879262685842513e-02
      - -2.9931828277501604e+00
      - 2.7615719358340351e-02
      - -1.0720914416242824e+00
      - 3.6207234092664034e-02
      - -6.0333440572231267e-01
      - 4.9079763383891264e-02
      - -5.1655236115917236e-01
      - 5.0155078373642054e-02
      - -4.6827959313212336e-01
      - 4.6605688331584835e-02
      - -3.7238406419395009e-01
      - 3.9911970695616944e-02
      - -5.4967872512478388e-01
      - 3.2116254937215705e-02
      - -1.5352205825433409e+00
      - 3.9798833928804914e-02
      - -1.0367399214523338e+00
      - 6.0045461281774105e-02
      - -9.4289209497914583e-01
      - 6.7387804694854628e-02
      - -7.0857275827659028e-01
      - 4.0179139605373143e-02
      - -5.1914630876249457e-01
      - 3.9513427544679007e-02
      - -5.7235786631549890e-01
      - 5.5907026094639288e-02
      - -6.1276314739371973e-01
      - 6.3141256033116544e-02
      - -7.3831508292188752e-01
      - 4.8187198397843030e-02
      - -8.8406810525943702e-01
      - 3.2155894174664891e-02
      - -1.3874790773583128e+00
      - 4.9383575286470888e-02
      - -4.7672263271593185e-01
      - 6.0661721945098501e-02
      - -4.0961677590650669e-01
      - 3.4532487723709253e-02
      - -4.0002980828455270e-01
      - 3.2873121386342394e-02
      - -4.7487013963043118e-01
      - 4.1307145494091313e-02
      - -4.4210915127834366e-01
      - 5.1810802403913975e-02
      - -3.6677944276038110e-01
      - 3.8929203097981951e-02
      - -4.9875632483949156e-01
      - 1.3751597413412184e-02
      - -1.8269201395362840e+00
      - 2.7243734123895538e-02
      - -1.1480131923891030e+00
      - 5.6276116980727847e-02
      - -3.9839033308139021e-01
      - 4.6312192018676306e-02
      - -4.4799021388363119e-01
      - 2.4585858635756224e-02
      - -5.1289509054988480e-01
      - 2.3034803795290097e-02
      - -5.5808084046608786e-01
      - 2.4508430413553006e-02
      - -5.3166307956529335e-01
      - 3.6065090136809842e-02
      - -1.2819175603083894e+00
      - 2.2558045398636019e-02
      - -2.8005478341930399e+00
      - 3.6100394181510308e-02
      - -1.4983450733553585e+00
      - 3.8371063084832624e-02
      - -5.9114231841583720e-01
      - 3.9843731245462304e-02
      - -4.1697845471736289e-01
      - 5.6319583909460950e-02
      - -4.8457146947843133e-01
      - 8.2215450928389416e-02
      - -6.5039747813646676e-01
      - 3.4392969050960093e-02
      - -6.6368214534971504e-01
      - 2.4824584773278025e-02
      - -1.0504977754553493e+00
      - 4.2458755442602102e-02
      - -1.0639911883685733e+00
      - 7.9010724723960410e-02
      - -1.1038032929258232e+00
      - 5.1567096361418624e-02
      - -6.6832999145640570e-01
      - 4.2938862607383381e-02
      - -5.6968391974152210e-01
      - 4.1421288346340665e-02
      - -5.6923513093783007e-01
      - 6.0070264594076980e-02
      - -5.9951313575078813e-01
      - 6.3170345933857466e-02
      - -5.9355107219040337e-01
      - 5.2555275250879753e-02
      - -8.7002396256901926e-01
      - 3.1772705941926320e-02
      - -1.1611193824915846e+00
      - 4.9377826741098890e-02
      - -4.9035604179526920e-01
      - 4.6171719246873209e-02
      - -3.4514503001375518e-01
      - 4.4859152142784596e-02
      - -3.4643701654823744e-01
      - 5.3763592897744295e-02
      - -3.3482475180872440e-01
      - 6.0936920535145975e-02
      - -2.9503122912560775e-01
      - 5.2495199566680133e-02
      - -3.3732063879975649e-01
      - 4.9127488923473239e-02
      - -6.2746990803248004e-01
      - 1.3223772394275187e-02
      - -1.7058666388614991e+00
      - 3.3987223991363731e-02
      - -8.7054404421443532e-01
      - 4.2152216281436637e-02
      - -3.7269236771606851e-01
      - 7.0626573114027522e-02
      - -3.6502050658933038e-01
      - 6.1755464376715349e-02
      - -3.5708110095051249e-01
      - 4.2471824922087627e-02
      - -3.6710795204933167e-01
      - 3.2565521463105783e-02
      - -4.5688459320020686e-01
      - 2.6656329816124650e-02
      - -1.0345823057347387e+00
      - 1.7506792289634213e-02
      - -1.5080108209882934e+00
      - 3.1697083534970284e-02
      - -8.2726249701169963e-01
      - 4.2053417418900355e-02
      - -5.1921397545909642e-01
      - 5.1802964724479740e-02
      - -3.6518525627554033e-01
      - 6.2850651726145165e-02
      - -3.9203871868783619e-01
      - 7.1342664950927323e-02
      - -4.7255685992247898e-01
      - 4.1223796156870739e-02
      - -5.9468387129267986e-01
      - 3.8974026618511522e-02
      - -1.1954607372687989e+00
      - 5.7153105278904721e-02
      - -9.4896789656161595e-01
      - 6.1830822291509040e-02
      - -8.3930749863028609e-01
      - 5.1166972141379850e-02
      - -6.0944423253544522e-01
      - 7.1022613597950299e-02
      - -5.3653717005184232e-01
      - 5.4927852874530572e-02
      - -4.9924523701801049e-01
      - 6.1684476398273340e-02
      - -4.9897244769692389e-01
      - 5.9115072468020155e-02
      - -5.9758899989949088e-01
      - 6.2520999827996512e-02
      - -8.6229458178613017e-01
      - 3.7527434904657354e-02
      - -1.1068735503066758e+00
      - 3.9111073960481510e-02
      - -4.9063099710821850e-01
      - 5.8808221381302282e-02
      - -3.5808966484654359e-01
      - 8.0738326555572407e-02
      - -3.7251544727620534e-01
      - 5.2463533038776010e-02
      - -3.9633342285728806e-01
      - 4.7502378932931022e-02
      - -4.3410589856530035e-01
      - 5.4755731148965613e-02
      - -4.3750371323975495e-01
      - 3.7710148630583272e-02
      - -4.8948519658113532e-01
      - 1.2457095585000999e-02
      - -1.4604402853663052e+00
      - 2.4269622824451498e-02
      - -9.8135781797089017e-01
      - 3.8522342907151390e-02
      - -5.0880005384296978e-01
      - 4.8197523193631679e-02
      - -4.6861354233808228e-01
      - 4.1629048888181454e-02
      - -4.3813543532808796e-01
      - 4.3838349879855756e-02
      - -4.2319199141444913e-01
      - 3.9086763407169108e-02
      - -4.6052721242110134e-01
      - 3.2123294304429020e-02
      - -8.2025718822893501e-01
      - 1.8330664760567248e-02
      - -1.6145504327723388e+00
      - 3.8177236994006526e-02
      - -1.4015959878591704e+00
      - 4.1915967216863366e-02
      - -6.2043931672485875e-01
      - 6.5612890165851076e-02
      - -4.4304941676346965e-01
      - 6.7749631525211310e-02
      - -4.2259671149389233e-01
      - 4.6377658827825574e-02
      - -4.1372545152347368e-01
      - 6.6714833199155374e-02
      - -6.0637838491905571e-01
      - 4.1882279253840270e-02
      - -9.4919343774297404e-01
      - 4.2237022804353395e-02
      - -9.6350594595277439e-01
      - 5.0521640527326377e-02
      - -7.9834196318428607e-01
      - 6.6772164045969196e-02
      - -6.3466611370426163e-01
      - 6.5555425687423508e-02
      - -4.5758985257062945e-01
      - 4.7690706831758460e-02
      - -4.5329780750978338e-01
      - 5.1267740942776599e-02
      - -5.8577201037588311e-01
      - 5.3037558128631437e-02
      - -5.5400617649214023e-01
      - 6.2561670791138169e-02
      - -8.4179515450650266e-01
      - 3.5921112657423371e-02
      - -1.2625737617213164e+00
      - 4.5212432393225817e-02
      - -5.2240503567222307e-01
      - 5.3594018307873470e-02
      - -4.0275108807599963e-01
      - 3.7783126317838915e-02
      - -4.7920975062526383e-01
      - 3.3503263961836983e-02
      - -5.2676418981581319e-01
      - 3.9048260637758493e-02
      - -4.3185056566709146e-01
      - 4.7714074208822684e-02
      - -3.7084701241510698e-01
      - 5.7453322718551060e-02
      - -5.3528293740749056e-01
      - 1.3301737385981081e-02
      - -1.6541566491873503e+00
      - 3.7506521626919226e-02
      - -1.2566541503514324e+00
      - 2.6153587169277355e-02
      - -5.8081679228405059e-01
      - 2.0013001196891155e-02
      - -6.0435300644077250e-01
      - 2.2542156330632026e-02
      - -5.9256856492899035e-01
      - 4.3343424226783021e-02
      - -5.0338452097046027e-01
      - 6.6427705234346615e-02
      - -4.5315533570757244e-01
      - 2.8443099350739052e-02
      - -1.1371607443394485e+00
      - 2.2367215921353056e-02
      - -2.7954590750023725e+00
      - 2.3380348750780922e-02
      - -1.0602177948373923e+00
      - 3.6578499449404056e-02
      - -7.1925643471798473e-01
      - 5.8294891343232659e-02
      - -6.3085461621933958e-01
      - 4.6714964323162717e-02
      - -4.3801060607955539e-01
      - 3.6966375864634998e-02
      - -4.4176649176845983e-01
      - 4.1725335807393800e-02
      - -6.2877189206785500e-01
      - 3.7975179528678897e-02
      - -1.6002214264758157e+00
      - 3.1591871881761317e-02
      - -1.1254213369364081e+00
      - 4.5572225809127870e-02
      - -8.3473878957313430e-01
      - 8.5058550540538291e-02
      - -7.6552695486484468e-01
      - 5.0924299264488743e-02
      - -5.0672198773080390e-01
      - 4.1915165896363404e-02
      - -5.1460203674743188e-01
      - 3.9467635347668416e-02
      - -5.5997149953672121e-01
      - 4.3170183357049488e-02
      - -6.1464082839046696e-01
      - 4.8958087232278846e-02
      - -8.9675704336352347e-01
      - 3.7268043183895712e-02
      - -1.0977468165553439e+00
      - 5.1734756987765626e-02
      - -4.7278396732383837e-01
      - 5.0010296288052196e-02
      - -3.4611086242919292e-01
      - 3.8008583703152021e-02
      - -4.5986623054704723e-01
      - 3.0660136578315626e-02
      - -5.2941859596616292e-01
      - 3.5821432109174003e-02
      - -5.0504672597488898e-01
      - 3.9343799122544418e-02
      - -4.4368898218394154e-01
      - 4.7311872583138043e-02
      - -4.9700887931395504e-01
      - 1.3219948738970451e-02
      - -1.6208180716304070e+00
      - 2.7897889365869906e-02
      - -1.1645297184802725e+00
      - 5.0157428472422327e-02
      - -4.1019837542792914e-01
      - 4.0609178958468710e-02
      - -5.3314625048445052e-01
      - 2.2628008789915246e-02
      - -6.0513120536199094e-01
      - 2.1190214417303035e-02
      - -6.0129855960386625e-01
      - 2.6016353192627656e-02
      - -5.7055665665020050e-01
      - 4.1954470252334446e-02
      - -1.2956038882874370e+00
      - 2.1517454034936045e-02
      - -2.7241948984626458e+00
      - 3.7227930574458210e-02
      - -1.6737825023625221e+00
      - 3.9815944222030081e-02
      - -5.9802759786950133e-01
      - 4.3009520602517934e-02
      - -4.1348756935688036e-01
      - 5.0805780270895592e-02
      - -4.4266422414245665e-01
      - 5.8096965676943044e-02
      - -6.3561531755467393e-01
      - 3.3608748947939332e-02
      - -6.8016121633255444e-01
      - 2.4782590606756506e-02
      - -1.0960775469344683e+00
      - 3.1077232011889274e-02
      - -1.0421642061808809e+00
      - 4.1689292025016964e-02
      - -8.8992191689046118e-01
      - 4.4892595729338569e-02
      - -6.1471742468985391e-01
      - 6.0516158476599774e-02
      - -6.7166944210166679e-01
      - 3.6292673515627101e-02
      - -5.1815876445083442e-01
      - 4.0966596040653315e-02
      - -5.2201989212198829e-01
      - 8.8668978887554276e-02
      - -8.6561993250622293e-01
      - 4.6465771444417277e-02
      - -8.5340600029103020e-01
      - 3.8935080370691690e-02
      - -8.6659466013183084e-01
      - 5.3476563140951422e-02
      - -4.1086943561760697e-01
      - 5.2247584467761198e-02
      - -3.6418118282479089e-01
      - 4.3074439797434708e-02
      - -3.7444909051631364e-01
      - 3.6690999922492001e-02
      - -4.2539763276473402e-01
      - 4.7958074056476577e-02
      - -4.6486093565634229e-01
      - 5.5850599887008814e-02
      - -4.6671194361025187e-01
      - 4.1338452451968224e-02
      - -4.8951276368865343e-01
      - 1.2603945168234466e-02
      - -1.4757847085103049e+00
      - 3.2838470537956972e-02
      - -8.6160343490679181e-01
      - 5.1267067266255344e-02
      - -3.7815807042930921e-01
      - 5.2179418139601044e-02
      - -3.6835569439144106e-01
      - 4.3114569725827633e-02
      - -4.2730380490646996e-01
      - 3.5956865564661253e-02
      - -4.8630770654779476e-01
      - 3.2867011458085210e-02
      - -5.7110500107860929e-01
      - 3.1158494751149474e-02
      - -1.0467403236698036e+00
      - 1.7186411958779863e-02
      - -1.5854039625737819e+00
      - 3.2526943878026314e-02
      - -9.6131611362285696e-01
      - 4.8809793213219314e-02
      - -4.7649956542806182e-01
      - 8.6440990505626758e-02
      - -4.7157411652079551e-01
      - 4.9175085843623942e-02
      - -3.8463681006398925e-01
      - 5.4168696264441457e-02
      - -5.0360797814168845e-01
      - 3.9898633463681291e-02
      - -6.5417957441441799e-01
      - 3.4155799979759635e-02
      - -1.1616353755492510e+00
      - 3.9828504979507046e-02
      - -8.4704582867308054e-01
      - 4.2181409280628190e-02
      - -7.6970630994255196e-01
      - 5.0922745826895002e-02
      - -5.8737622661715527e-01
      - 5.1101661318319419e-02
      - -4.7762344836132209e-01
      - 4.2412706964711881e-02
      - -4.6318035427799215e-01
      - 4.9772733342998546e-02
      - -4.8442175124918391e-01
      - 6.2781378509696326e-02
      - -5.6192441755213351e-01
      - 6.5318761736699663e-02
      - -7.7606449588158011e-01
      - 3.3302232545637606e-02
      - -8.7640924857727487e-01
      - 5.6561148610219714e-02
      - -6.7593372646074457e-01
      - 5.4439047176735401e-02
      - -4.2796637087453376e-01
      - 4.4045788864729145e-02
      - -4.4481885784181907e-01
      - 3.8243415979850627e-02
      - -3.9985195321507194e-01
      - 6.6744864648944469e-02
      - -3.8262650130434500e-01
      - 8.7444150411746066e-02
      - -3.9999205435868002e-01
      - 6.8173219892644479e-02
      - -4.5156320899187280e-01
      - 1.2417104333537607e-02
      - -1.3828474212240693e+00
      - 2.4500536010029165e-02
      - -1.0367850584838085e+00
      - 3.6664015511196968e-02
      - -5.7065180577823393e-01
      - 3.5068184542429638e-02
      - -5.3609185082684518e-01
      - 3.1616327540998614e-02
      - -4.8113163792588981e-01
      - 7.6744441242616562e-02
      - -4.8630140985420400e-01
      - 9.1925059348803309e-02
      - -4.0501635059621266e-01
      - 3.5279675759078935e-02
      - -8.2715120987622692e-01
      - 1.7336473446060003e-02
      - -1.5662902989633418e+00
      - 3.0425689518798336e-02
      - -1.2468507813693694e+00
      - 5.5007694928950621e-02
      - -6.9876111479053116e-01
      - 7.6007297408507132e-02
      - -4.4249792946734845e-01
      - 4.9708781674095655e-02
      - -4.4491820429091561e-01
      - 4.8374798816252493e-02
      - -4.6458965199767244e-01
      - 5.3199306104088039e-02
      - -5.0829039990539560e-01
      - 3.8070928786290634e-02
      - -9.0126327453486044e-01
      - 4.2495547438491946e-02
      - -8.3770925693106402e-01
      - 7.5833092238271588e-02
      - -9.6931209979810518e-01
      - 7.5857214600626000e-02
      - -6.2187894741899341e-01
      - 1.1648273202408772e-01
      - -6.6199097209729063e-01
      - 4.4776955942159635e-02
      - -4.7968976563778937e-01
      - 4.2868713891746561e-02
      - -5.2376230636054710e-01
      - 4.9729058799979187e-02
      - -6.5583273585715118e-01
      - 3.7921960465354815e-02
      - -6.5030530223756977e-01
      - 3.8272883359350932e-02
      - -1.1845646869438715e+00
      - 8.6212378556970101e-02
      - -7.3835353912652613e-01
      - 4.5408684292212981e-02
      - -4.4599420611757701e-01
      - 3.2487205566786206e-02
      - -5.7801493468826548e-01
      - 3.0532660168858586e-02
      - -5.8767813235902067e-01
      - 5.8531126568528602e-02
      - -5.3141626795386865e-01
      - 5.5219542469612290e-02
      - -3.9528444757950182e-01
      - 6.0316966822333624e-02
      - -6.1272483128430000e-01
      - 1.2856190089577281e-02
      - -1.4826623976573878e+00
      - 3.6207410912132233e-02
      - -1.3436175851353624e+00
      - 2.4380081185026388e-02
      - -5.8801859174974536e-01
      - 2.0629433515786676e-02
      - -6.6381840521095736e-01
      - 2.0014340278648426e-02
      - -6.8524345231253725e-01
      - 3.4694676756263393e-02
      - -5.8740492329911287e-01
      - 6.3147376883026449e-02
      - -3.8638691993772623e-01
      - 2.8757882315357201e-02
      - -1.0916606019512824e+00
      - 2.7272908014306461e-02
      - -3.5808518136407721e+00
      - 2.2347415686374723e-02
      - -1.1914934007042366e+00
      - 3.2941905353292271e-02
      - -6.7384135108813692e-01
      - 7.8551213054204136e-02
      - -6.3229837834720748e-01
      - 3.7722003332784054e-02
      - -3.7236472596817533e-01
      - 5.3931742335731440e-02
      - -3.9514345869743828e-01
      - 5.2575607544564563e-02
      - -4.8827643442377777e-01
      - 3.3706538868801594e-02
      - -1.4046616049384744e+00
      - 3.0935178826267055e-02
      - -1.1207110824288233e+00
      - 4.7139137670820556e-02
      - -9.1524602943048616e-01
      - 6.0575099060353570e-02
      - -6.6152806201554437e-01
      - 7.4454465228025069e-02
      - -6.7451322459052410e-01
      - 4.5507805801286792e-02
      - -6.3440584721001780e-01
      - 4.2277225615175842e-02
      - -5.1193115769663422e-01
      - 6.0817710815075525e-02
      - -6.0275770817713470e-01
      - 3.7946704603192091e-02
      - -7.1272176863619208e-01
      - 3.8616514268677661e-02
      - -1.2858152226293365e+00
      - 5.2345801613271861e-02
      - -5.7113934037451086e-01
      - 6.3442486406934534e-02
      - -4.6356985117146227e-01
      - 3.6413709806691223e-02
      - -4.7806514063042138e-01
      - 2.9980372675136008e-02
      - -6.0613783170918534e-01
      - 4.3490758645659551e-02
      - -5.5504542469559570e-01
      - 6.0759181269505434e-02
      - -3.9884492259091187e-01
      - 4.5725696181682776e-02
      - -5.4961381351052363e-01
      - 1.2996549487483987e-02
      - -1.5066989895935643e+00
      - 2.8599126290945558e-02
      - -1.1108353706869249e+00
      - 6.3062362884251863e-02
      - -4.4330967968137447e-01
      - 3.5336391660661694e-02
      - -5.4019196756496690e-01
      - 2.0290297146838440e-02
      - -7.0333000308001370e-01
      - 1.9027491426246532e-02
      - -6.8367095431533331e-01
      - 2.8868386042583117e-02
      - -6.2681555040975023e-01
      - 4.1563215872005406e-02
      - -1.2876366580545042e+00
      - 2.7559233507064042e-02
      - -3.5750601723718129e+00
      - 3.4751941533655621e-02
      - -1.5404400222393686e+00
      - 3.7976108321383005e-02
      - -6.1551375566439581e-01
      - 4.7016591677116595e-02
      - -3.8870152525140944e-01
      - 4.5827950687812972e-02
      - -4.0292297238393981e-01
      - 5.8692329055546000e-02
      - -6.4212894659780528e-01
      - 4.1900699501439639e-02
      - -7.7039206905122193e-01
      - 2.2606870814072970e-02
      - -1.1211664941355595e+00
      - 3.0366713643134813e-02
      - -1.0748613987545244e+00
      - 5.4827745796072226e-02
      - -1.1329257967960669e+00
      - 3.4168365232132750e-02
      - -7.1313776147857266e-01
      - 3.8719451846254763e-02
      - -6.3369558318672392e-01
      - 3.8746566734497487e-02
      - -5.6086614421619141e-01
      - 5.4401239595723287e-02
      - -5.2408322897662141e-01
      - 1.0917304967709515e-01
      - -6.7665672374120367e-01
      - 7.1991210904374534e-02
      - -1.0271221278535019e+00
      - 4.0495858622969498e-02
      - -1.0480809350538838e+00
      - 6.2643058618405065e-02
      - -5.7619209362869606e-01
      - 4.0649159241823586e-02
      - -4.0769899318779496e-01
      - 4.1737561258592674e-02
      - -4.3473182617860884e-01
      - 3.6027088314193483e-02
      - -4.1234964446740263e-01
      - 5.9795102797680778e-02
      - -4.4224694841453016e-01
      - 8.0300224894079272e-02
      - -3.8878029676440362e-01
      - 4.6366221912463292e-02
      - -5.3711365977804004e-01
      - 1.2732082086654417e-02
      - -1.4433895038830997e+00
      - 4.7507192142967197e-02
      - -9.4967347462030471e-01
      - 3.9991899726179912e-02
      - -4.0467051010055316e-01
      - 3.8967070195536822e-02
      - -4.6683321719405502e-01
      - 4.0368499025585577e-02
      - -4.8881855750783326e-01
      - 3.6378838639067226e-02
      - -5.3883903568360969e-01
      - 4.5462253160207793e-02
      - -4.9153247971234565e-01
      - 2.5349131494341995e-02
      - -9.5071792178779679e-01
      - 1.7311460318836902e-02
      - -1.5630020460145913e+00
      - 4.4171725401090114e-02
      - -1.0107015584348440e+00
      - 3.9014114487306246e-02
      - -5.0950115850254396e-01
      - 4.4948602540005295e-02
      - -4.8152859354738348e-01
      - 4.9126710178192326e-02
      - -4.0760577355767497e-01
      - 7.0810254553838492e-02
      - -5.3002527170991987e-01
      - 4.6511777096850192e-02
      - -6.3044181035235558e-01
      - 3.6256471184495868e-02
      - -1.2919508890396103e+00
      - 5.0369573152685233e-02
      - -9.0016910436234510e-01
      - 4.6345461600083800e-02
      - -7.5116357068650674e-01
      - 3.8195397725479523e-02
      - -6.1793346419241124e-01
      - 4.2739708834381183e-02
      - -5.6873434330107231e-01
      - 3.4107719143990065e-02
      - -4.2651533939464803e-01
      - 5.7623683136778965e-02
      - -4.1591747531397888e-01
      - 6.9377066646762159e-02
      - -6.3401022292041065e-01
      - 6.4511157543815006e-02
      - -9.0251748128129317e-01
      - 3.3639676047916678e-02
      - -1.0421638252864485e+00
      - 4.6276866220852100e-02
      - -5.9381008536855773e-01
      - 6.2982956466817772e-02
      - -4.4025710163934006e-01
      - 4.8471098886705886e-02
      - -3.6041381449421905e-01
      - 6.0068331040055364e-02
      - -3.4673105936982451e-01
      - 7.1999734615720776e-02
      - -3.1366221020710044e-01
      - 4.5598663482485424e-02
      - -3.7878493724559670e-01
      - 3.8809686429517959e-02
      - -5.6600661495722726e-01
      - 1.2740229547596786e-02
      - -1.5192408383292642e+00
      - 2.5045824329675778e-02
      - -1.0214232714250944e+00
      - 3.4389551756914279e-02
      - -5.5499969667099280e-01
      - 4.3224096825203680e-02
      - -5.4137111370180846e-01
      - 5.5118376730237492e-02
      - -3.6618248302959761e-01
      - 5.9932452635817028e-02
      - -3.2577145046597578e-01
      - 4.7408635201761709e-02
      - -3.5533006779934273e-01
      - 3.3699247121871972e-02
      - -8.2813397382659637e-01
      - 1.7301076857862155e-02
      - -1.5420227116284666e+00
      - 3.2319174294427544e-02
      - -1.1881296451010839e+00
      - 3.9601041051254830e-02
      - -6.4381098421941019e-01
      - 4.7802490632284630e-02
      - -4.7281869447180547e-01
      - 6.3290737116158235e-02
      - -4.4428844173619991e-01
      - 4.7873127021956001e-02
      - -3.7540115446919953e-01
      - 4.9967877272207167e-02
      - -4.5070035836614586e-01
      - 4.5775308507800185e-02
      - -9.2728991294018981e-01
      - 4.7645230537779901e-02
      - -8.0336462976078393e-01
      - 6.2445408616052585e-02
      - -9.0638583199141676e-01
      - 7.4431009321297800e-02
      - -7.8410489027585017e-01
      - 4.6354500527813224e-02
      - -5.2091443662443571e-01
      - 6.1179972252064681e-02
      - -6.2815476460783237e-01
      - 4.2703775773095094e-02
      - -4.6466781757060899e-01
      - 4.5495126248343266e-02
      - -5.2026604769145024e-01
      - 6.2853183041096342e-02
      - -7.9966673473078020e-01
      - 3.1090922663079220e-02
      - -1.2267062060630762e+00
      - 6.2766077490410674e-02
      - -6.5935453680520517e-01
      - 6.0559917754090448e-02
      - -4.0233371101974941e-01
      - 3.8735611388612076e-02
      - -5.2273899329384421e-01
      - 3.1754120758904054e-02
      - -5.4264962801849892e-01
      - 5.4835745219045100e-02
      - -4.4140060260478875e-01
      - 4.7959555493330266e-02
      - -3.7655373768525646e-01
      - 3.7310775312248745e-02
      - -5.2678381777491790e-01
      - 1.3519116593800036e-02
      - -1.6906926900622601e+00
      - 4.0990968664504024e-02
      - -1.3433673889060231e+00
      - 2.4057548244809868e-02
      - -5.8047767398615491e-01
      - 1.9437885980975528e-02
      - -6.4125778305554904e-01
      - 2.3646367595456290e-02
      - -5.9818286342961202e-01
      - 5.8343657774164108e-02
      - -4.9389928115752779e-01
      - 5.3975267649331540e-02
      - -3.6286343300887242e-01
      - 2.9770453310866529e-02
      - -1.1999555983023529e+00
      - 2.2473717074489596e-02
      - -2.8383637128929631e+00
      - 2.3884947008114759e-02
      - -1.0776604308512767e+00
      - 3.1223423427164804e-02
      - -6.9217074310318805e-01
      - 5.0460013667470265e-02
      - -6.5847819815570108e-01
      - 5.1146262638409955e-02
      - -4.7905311342510709e-01
      - 3.8201533575829741e-02
      - -3.9487525795214107e-01
      - 3.8503146876690368e-02
      - -5.4171259120571302e-01
      - 3.9274335605835570e-02
      - -1.5908050194403298e+00
      - 3.9092975891373241e-02
      - -1.0980868574636227e+00
      - 5.1549589894778182e-02
      - -8.7328067633629192e-01
      - 5.3634446424962574e-02
      - -6.0484786611913244e-01
      - 4.9984139008025612e-02
      - -6.0277902288886331e-01
      - 3.6261882709036103e-02
      - -5.8270332313629303e-01
      - 4.1791020409136577e-02
      - -5.7514374622475095e-01
      - 4.4382944654401929e-02
      - -6.4157523955868134e-01
      - 5.2971793214429914e-02
      - -9.2149941265102342e-01
      - 3.2287388951754072e-02
      - -1.1671411590381595e+00
      - 4.0018404616944475e-02
      - -5.7808764689229686e-01
      - 4.0730051593995641e-02
      - -3.8310444568609758e-01
      - 4.0479372048769682e-02
      - -4.4727702184581153e-01
      - 3.0918794881752268e-02
      - -5.8929386284527829e-01
      - 3.6990426266537181e-02
      - -4.9149655494745442e-01
      - 7.1253769358004079e-02
      - -3.9224847290148779e-01
      - 5.3154949945839830e-02
      - -5.0944546086705900e-01
      - 1.3695394306341839e-02
      - -1.7267044663065045e+00
      - 2.6311770737577279e-02
      - -1.1665753402264460e+00
      - 6.9497811177026289e-02
      - -5.0162281532724917e-01
      - 3.6863661008970476e-02
      - -5.4492520679596945e-01
      - 2.0913051145195281e-02
      - -6.2200797663531315e-01
      - 2.3178313405278594e-02
      - -5.8840787694192398e-01
      - 2.9250735959646262e-02
      - -5.1319112990587312e-01
      - 4.0818320615013733e-02
      - -1.2706217823129027e+00
      - 2.3237569637298925e-02
      - -3.0070795560346233e+00
      - 3.5050247790906465e-02
      - -1.6105762375999695e+00
      - 4.4140658509616362e-02
      - -6.5511729807836561e-01
      - 4.4022194057821575e-02
      - -4.6506614910589722e-01
      - 4.9962325732829986e-02
      - -4.7736281517010831e-01
      - 6.8501706824121517e-02
      - -6.3482769888492807e-01
      - 4.1235819610037847e-02
      - -6.6793862259427639e-01
      - 2.3640484038627164e-02
      - -1.0188814556449906e+00
      - 3.9364920642426970e-02
      - -1.0913047306811436e+00
      - 4.4788269225012473e-02
      - -8.7270607757252028e-01
      - 5.2264356441189541e-02
      - -7.5032986970024595e-01
      - 4.5603209042415528e-02
      - -5.9780840368473420e-01
      - 3.7732131280368959e-02
      - -5.4655552537801766e-01
      - 5.1089695818407332e-02
      - -5.1039111961161387e-01
      - 8.1542667394410476e-02
      - -7.1208547170168357e-01
      - 4.7198714644509455e-02
      - -8.3462281539696914e-01
      - 3.5370989182559438e-02
      - -9.9283915180748528e-01
      - 3.5876173921957556e-02
      - -5.0262164455019742e-01
      - 3.9431266248291005e-02
      - -4.0602491978438265e-01
      - 4.8154348075687463e-02
      - -3.5043015678841866e-01
      - 4.9656366652565800e-02
      - -4.3215788403569638e-01
      - 4.9708504737202189e-02
      - -4.0849563298888930e-01
      - 7.4296486317326910e-02
      - -3.8766582464585431e-01
      - 6.5860757396918684e-02
      - -6.1491776460687442e-01
      - 1.2823449644038440e-02
      - -1.5275140858161036e+00
      - 3.2177016390094959e-02
      - -9.2931046346442570e-01
      - 4.2063058859352756e-02
      - -3.9647556469409723e-01
      - 6.0878488832174157e-02
      - -4.0324464384875752e-01
      - 5.5286910039160440e-02
      - -5.0743530303269035e-01
      - 3.6910249586535715e-02
      - -4.9372026922187873e-01
      - 4.3156442970925447e-02
      - -5.2855960351519582e-01
      - 2.7357542230428938e-02
      - -1.0198133316590587e+00
      - 1.8360473172112198e-02
      - -1.6780745331858187e+00
      - 3.3951637947135349e-02
      - -1.0141791256089836e+00
      - 4.9926334572029357e-02
      - -5.8626369111313681e-01
      - 5.7834403857684860e-02
      - -4.6152999514152471e-01
      - 8.3212590964565028e-02
      - -4.7620670868830284e-01
      - 5.6046314744005850e-02
      - -4.5891388409200823e-01
      - 4.2934780986357578e-02
      - -6.0491280538204784e-01
      - 2.9573365169991959e-02
      - -9.9641744231170937e-01
      - 4.9085025862352867e-02
      - -7.8098650060199071e-01
      - 4.3852165213584413e-02
      - -7.9932511047731591e-01
      - 5.7702021216606621e-02
      - -7.3355836873389013e-01
      - 5.6657589491399082e-02
      - -5.1440603528329665e-01
      - 5.8285707863954268e-02
      - -4.8936911157062596e-01
      - 5.9738240565000857e-02
      - -4.7672298906327415e-01
      - 4.9853710408973038e-02
      - -5.6665405494555487e-01
      - 4.8778327402711284e-02
      - -7.2684537367406421e-01
   output_scale:
      - 1.
      - 0.
      - 5.2631578947368418e-01
      - 4.9999999999999994e-01
      - 5.2631578947368418e-01
      - 4.9999999999999994e-01
      - 5.2631578947368418e-01
      - 4.9999999999999994e-01
      - 5.2631578947368418e-01
      - 4.9999999999999994e-01
      - 5.2631578947368418e-01
      - 4.9999999999999994e-01
      - 5.2631578947368418e-01
      - 4.9999999999999994e-01
      - 5.2631578947368418e-01
      - 4.9999999999999994e-01
      - 5.2631578947368418e-01
      - 4.9999999999999994e-01
      - 5.2631578947368418e-01
      - 4.9999999999999994e-01
      - 5.2631578947368418e-01
      - 4.9999999999999994e-01
      - 5.2631578947368418e-01
      - 4.9999999999999994e-01
      - 5.2631578947368418e-01
      - 4.9999999999999994e-01
      - 1.
      - 0.
      - 5.2631578947368418e-01
      - 4.9999999999999994e-01
      - 5.2631578947368418e-01
      - 4.9999999999999994e-01
      - 5.2631578947368418e-01
      - 4.9999999999999994e-01
      - 1.
      - 0.
      - 5.2631578947368418e-01
      - 4.9999999999999994e-01
      - 5.2631578947368418e-01
      - 4.9999999999999994e-01
   inv_output_scale:
      - 1.
      - 0.
      - 1.8999999999999999e+00
      - -9.4999999999999996e-01
      - 1.8999999999999999e+00
      - -9.4999999999999996e-01
      - 1.8999999999999999e+00
      - -9.4999999999999996e-01
      - 1.8999999999999999e+00
      - -9.4999999999999996e-01
      - 1.8999999999999999e+00
      - -9.4999999999999996e-01
      - 1.8999999999999999e+00
      - -9.4999999999999996e-01
      - 1.8999999999999999e+00
      - -9.4999999999999996e-01
      - 1.8999999999999999e+00
      - -9.4999999999999996e-01
      - 1.8999999999999999e+00
      - -9.4999999999999996e-01
      - 1.8999999999999999e+00
      - -9.4999999999999996e-01
      - 1.8999999999999999e+00
      - -9.4999999999999996e-01
      - 1.8999999999999999e+00
      - -9.4999999999999996e-01
      - 1.
      - 0.
      - 1.8999999999999999e+00
      - -9.4999999999999996e-01
      - 1.8999999999999999e+00
      - -9.4999999999999996e-01
      - 1.8999999999999999e+00
      - -9.4999999999999996e-01
      - 1.
      - 0.
      - 1.8999999999999999e+00
      - -9.4999999999999996e-01
      - 1.8999999999999999e+00
      - -9.4999999999999996e-01
   weights:
      -
         - 1.0377914552216524e-02
         - 1.0601307389761068e-02
         - 3.6429038414169759e-03
         - 1.2604033721591672e-03
         - -3.0446643767623690e-03
         - 9.1179728208755743e-03
         - 1.1743230682964580e-03
         - -1.9350561952444780e-03
         - 9.7134029968200739e-03
         - -2.5740138398635225e-04
         - -3.1972509730261150e-03
         - 6.0654769167690428e-03
         - -1.7186516750966576e-02
         - 1.9177055726633304e-02
         - 1.6990369112248594e-03
         - 1.0276725028180932e-02
         - -6.0710381860147322e-03
         - 6.7471120732300344e-03
         - -1.2125626519163268e-03
         - 5.8314640904207253e-03
         - -1.3715295062912988e-02
         - 6.7948869034442959e-03
         - 1.1976780015686894e-02
         - 3.0885647042723477e-03
         - -4.5096137989809265e-03
         - -1.5756417830366028e-02
         - 1.1472127644393622e-03
         - -3.9161410838413954e-03
         - -1.1786458114760269e-02
         - -9.9953107515272782e-03
         - 9.4470791130181180e-03
         - -1.3562974236927568e-02
         - 5.3367884202253893e-04
         - 5.5893854257166135e-03
         - -2.9364860142150079e-03
         - -2.8993285906002667e-03
         - -1.0561439625789551e-02
         - 1.3209152020060863e-02
         - 9.8312919561420152e-03
         - -4.6356977877566978e-03
         - 8.0571574044748041e-05
         - -5.0455200186065342e-03
         - -1.2021050916983076e-02
         - -1.8840958066335648e-03
         - 5.1280082345739183e-03
         - -7.7174660135228689e-04
         - -1.1983663093154649e-02
         - 4.5907719920062285e-03
         - 7.0881458374244741e-03
         - 2.4824220498937117e-03
         - 1.8890001889343216e-03
         - 6.8786660740736373e-03
         - 1.9074567595523444e-02
         - -1.2917298046550998e-02
         - -1.3486235624279004e-02
         - -6.4490028099196701e-03
         - 6.0444060984803615e-03
         - 8.6102565234587349e-03
         - 2.4567105283771443e-02
         - -8.0249195437807671e-03
         - 4.1230820929518408e-03
         - -2.6282158051186461e-02
         - -1.9697487631485694e-03
         - 1.3518594846038847e-02
         - -4.3928962771443512e-03
         - -8.5200033912666701e-03
         - -1.3093869525713175e-03
         - 1.2208203774742035e-02
         - 6.3526659262212850e-03
         - -9.0327995685198347e-03
         - -4.1959510784157902e-03
         - -6.6785921331458777e-03
         - -1.5865012062120949e-02
         - -1.9599410928045576e-02
         - -7.4656121934541754e-03
         - 3.5082649961931459e-03
         - -1.5858238694544061e-02
         - -1.7944832426320836e-03
         - 3.9592467134645188e-03
         - -5.9774259829742321e-03
         - -5.1443754315150334e-03
         - 6.3069245130097616e-03
         - 2.3114531552585259e-02
         - -7.3583227051213715e-03
         - -7.7635166896304012e-03
         - 3.6700274831602308e-03
         - 1.7145093639303340e-02
         - 1.4004194262507992e-02
         - 2.2403293552332167e-02
         - -9.2903117246601590e-03
         - -1.0001367353118999e-03
         - -2.1649314531006721e-02
         - -7.9866963903154637e-03
         - 1.8055516206352207e-02
         - -1.3089160349977510e-02
         - -2.7216313809300201e-03
         - 6.8660977946350581e-03
         - 8.5635305475173541e-03
         - -6.8840787983244717e-04
         - -1.4475228322813722e-02
         - -5.0712575548372569e-03
         - -2.4116504142543123e-03
         - -9.7012208575581252e-03
         - -2.4584408557102505e-02
         - -9.2606347295845649e-03
         - 4.3558800821959847e-03
         - -2.0434697442796031e-02
         - -1.0757399991868470e-02
         - -3.6330039239638070e-03
         - -1.6851767824289623e-02
         - -1.5543790131353104e-02
         - 9.1638999658949470e-03
         - 1.6927361275236426e-02
         - -2.7463609903199777e-03
         - -7.1986121524045075e-03
         - 2.2441236804136549e-03
         - 8.7689216886948172e-03
         - 1.2152297214103706e-02
         - 7.2286898213856574e-03
         - -4.6465754470415921e-03
         - -9.0232957534910451e-04
         - -1.1104755748914349e-03
         - -1.2037281189545165e-02
         - 5.5780951491001670e-03
         - 5.4238837218708268e-04
         - 9.5157215243117602e-03
         - -1.3161804932429680e-02
         - 1.5590485574975015e-02
         - -1.4810832174573911e-04
         - -6.4222104067939286e-03
         - 4.0494407005726620e-03
         - 6.2656873376115835e-03
         - 1.7506663052569617e-02
         - -1.2709959464926767e-02
         - 1.1957467564627195e-02
         - -1.2899211147246879e-02
         - 8.4780136230267304e-03
         - -1.2157449233969633e-02
         - -9.4175843262135420e-03
         - -1.8943554907845800e-03
         - -3.9342003944563077e-05
         - 5.1354393474333385e-03
         - 4.9010588356413389e-03
         - -1.6301185099950415e-02
         - -9.4642609172291333e-03
         - -1.0467743764872615e-02
         - -1.4075325066638356e-02
         - -8.8337445815692122e-03
         - 1.5436197103034517e-02
         - 3.2114790830334509e-03
         - -8.9959178006588092e-03
         - 6.2509862187316908e-03
         - -1.0601725236955266e-02
         - -1.6182222532178814e-02
         - 9.3984238056400229e-03
         - 1.2896779035665960e-02
         - -8.3294683880343161e-03
         - 7.9639649419111537e-03
         - -5.9877502224675748e-03
         - 1.5279003515918219e-03
         - 1.3484384187186865e-02
         - 4.5890487749873331e-03
         - 1.5347900037735274e-02
         - -1.5184544075859523e-02
         - -3.7732682904533361e-03
         - -7.3566518991075788e-03
         - 1.8095131635957797e-02
         - -1.0850190314329841e-02
         - -1.2420173386133198e-02
         - -1.7698389588408983e-03
         - -3.0316228271629049e-03
         - -9.9795548665954185e-03
         - -5.9771663218945960e-03
         - 1.0039986941530772e-05
         - -7.5637315738393569e-03
         - -3.0921056941812051e-03
         - -1.7676733133169184e-02
         - -1.5748371191258843e-02
         - -6.1850130138713846e-03
         - 9.2817205117501824e-03
         - -1.0379760691637454e-02
         - -1.5156295389573814e-03
         - -5.4284916472468877e-03
         - -1.0221225888746984e-02
         - 2.4208571448658895e-03
         - 6.0838836987406623e-04
         - -5.3440327375776928e-03
         - 2.2099123968171638e-03
         - -1.0246127576611034e-02
         - 7.0026645977646935e-04
         - 8.5120939332717568e-03
         - 5.4159984183972394e-04
         - 1.0056385002823208e-02
         - -1.3980817509577335e-02
         - -5.2719790796078962e-03
         - -3.2639150053751604e-03
         - 6.4053071191983377e-03
         - -7.4173074505168605e-03
         - -2.0015489733872915e-03
         - 1.2962722522764044e-03
         - -7.7411045137747820e-04
         - -1.1449162758542252e-02
         - -7.5898934401267288e-03
         - 6.8600785604403126e-03
         - 2.9766228826515308e-03
         - 9.2694316414047902e-03
         - -3.2145889930149498e-03
         - -4.3096961281478153e-03
         - 2.3351150606384695e-03
         - 1.5356874996772945e-02
         - -5.0534429104354701e-03
         - 8.7266194848887677e-03
         - 3.4607732633594045e-03
         - 2.4604761254608726e-04
         - 7.3533153132936202e-03
         - -4.1901597625649807e-04
         - 2.4139464327291127e-03
         - -5.3404206596523365e-03
         - -2.1294085635412516e-03
         - -2.3535349164663990e-04
         - 3.5381561815060790e-03
         - 5.1802723573563933e-03
         - 6.4940168994924536e-03
         - 2.3764245446566282e-03
         - 1.6180655339679225e-04
         - 9.1589289602000997e-05
         - 9.8401255098251091e-03
         - -3.8743347466765332e-03
         - -1.1832286772407517e-03
         - 4.1440702142025759e-04
         - -5.7790999098877530e-03
         - -7.0738036689865658e-03
         - -2.4242100475232861e-03
         - 5.8480304711375150e-03
         - 4.8954724257035918e-03
         - 4.5556413473497035e-04
         - 1.1336096782528376e-03
         - -2.3842362229007739e-03
         - -9.4371582277332916e-03
         - 3.2883730700853887e-03
         - 6.4638974428979160e-03
         - -3.6893259781961805e-03
         - 1.6691213294529376e-02
         - -1.2713841328641194e-02
         - -2.3637972557635114e-03
         - -7.1424767450352939e-03
         - 1.4714077809989965e-02
         - -1.3740598181259516e-02
         - 9.6484518883656768e-03
         - 1.4142372354512217e-02
         - 1.1000767778499647e-03
         - 1.8075562701443224e-03
         - -3.0739593709213568e-03
         - 1.1114435541245821e-02
         - -6.2768511542740952e-03
         - 1.3770108483794076e-02
         - -5.0375684176595555e-03
         - 5.0024156832616865e-03
         - 4.3701833461565441e-03
         - -2.5118226983156899e-03
         - 8.7713132627394962e-03
         - 2.5997805534670950e-03
         - 2.7186528178508385e-03
         - -3.6522418231830730e-03
         - 1.6552648476481132e-03
         - 3.6361300134366355e-03
         - 4.0907988026522629e-03
         - -1.8296351545932625e-04
         - -8.6390675709666961e-03
         - 5.8285152266239551e-03
         - -3.5249296097727739e-03
         - -2.6746769263278117e-04
         - -4.5888095809686639e-03
         - 1.0919890979660507e-02
         - -1.5798247667039966e-02
         - 3.6111406997844341e-03
         - -5.7284269347550199e-03
         - 4.7652548357100047e-03
         - -2.2406277143439991e-03
         - -7.4360022864604046e-03
         - -1.0527408442138264e-02
         - 9.2403861479285268e-03
         - 1.7866443568605048e-02
         - -9.9891009800499066e-03
         - -3.9008731548248292e-03
         - 6.4927708047484165e-03
         - -7.8352668917236294e-03
         - -1.7626785282920349e-02
         - -8.3421033001682774e-03
         - -8.0634120339049334e-03
         - -2.6786933798436199e-03
         - 1.4534743476095437e-02
         - 1.1675973237732000e-02
         - -2.0538954817348423e-02
         - -2.5966558221783582e-02
         - -1.7322662357124832e-02
         - -1.3911092116677027e-02
         - 7.1783679907534113e-03
         - 1.2538465134985941e-02
         - 6.1475259216467884e-03
         - 1.9586781107638071e-03
         - 2.5199480648874515e-03
         - 1.2347389454290389e-03
         - 4.3411875035710978e-03
         - 2.3689957574285704e-03
         - 5.3991276025646909e-03
         - -5.0051239134274086e-03
         - 5.1674435428450986e-03
         - 3.8994304292000333e-03
         - -7.0104646486808747e-03
         - 3.2849076818287139e-04
         - -4.0519001900538015e-03
         - -9.3557164243613274e-03
         - 7.2590481258031992e-03
         - 5.3413849771632525e-03
         - -3.1864828291826653e-03
         - 2.6856598379137921e-03
         - 2.4064474054443525e-03
         - 8.1787726090902027e-03
         - 2.5159930620401367e-03
         - -3.0713971353034859e-03
         - -8.9394249022567603e-04
         - 4.5494012513452436e-04
         - 3.1793490169180262e-03
         - 4.2831027246980598e-03
         - -4.7285020076880766e-03
         - 1.1134138696084193e-03
         - -1.3348133798194780e-03
         - -3.0098793202255341e-03
         - -9.4890276133084879e-03
         - 5.2087350529055991e-03
         - 2.1879982978890412e-03
         - -2.5704837179496990e-03
         - 1.6549642566520643e-03
         - 3.5712362984129864e-03
         - -4.3677469120845976e-03
         - -8.5351159279993462e-04
         - 9.6513026746567337e-03
         - 9.3153945214837046e-03
         - -1.6746695019806037e-03
         - 1.8721000680638215e-03
         - -1.9278356043873957e-02
         - -2.8084777539796549e-02
         - 1.0092644503783825e-02
         - -6.9703342513288058e-03
         - -2.2033701424699530e-03
         - -7.5398214406534126e-03
         - 1.2113317452367562e-02
         - 1.0706863039910312e-02
         - 5.6137882847574500e-03
         - -1.4598749063296801e-02
         - -4.2264241863342227e-03
         - 5.5969278150651974e-03
         - 1.4720768452299289e-02
         - -4.0748090850675021e-03
         - -4.2586617852317715e-03
         - 3.4138142363048202e-03
         - 3.5660836587599895e-03
         - -3.0931528173394791e-03
         - -2.1264728898881369e-02
         - -8.8861637922150200e-03
         - 6.8610075781883753e-03
         - -8.3450496507372837e-03
         - 4.2918678802994535e-03
         - 6.2009345642833986e-03
         - 3.4033692532258950e-03
         - -9.7483960420869237e-03
         - 3.3853867711094989e-03
         - -6.7382629870215635e-03
         - -7.0043871429621716e-03
         - 1.4274235674094819e-05
         - 2.7575755375923469e-03
         - 1.1233103711653286e-02
         - 3.1064435914008775e-03
         - 1.0180225494465600e-02
         - -1.1301188299807322e-02
         - 1.1414480478653694e-02
         - -6.7641690672520720e-05
         - -2.8729055633702831e-04
         - 7.1096419674133073e-03
         - 7.6331710473036820e-03
         - -3.7041064359274378e-03
         - -8.2644609679770175e-03
         - -1.5712339526220056e-03
         - 6.8932584740549994e-03
         - -4.7209376804013971e-04
         - -2.1562309999591184e-03
         - -2.9158646377855403e-03
         - 7.9817902587962924e-03
         - 4.3512376210875234e-03
         - -1.0133007881304685e-02
         - 8.6973478660721370e-03
         - -5.9761559486555928e-03
         - -4.0286447812686301e-03
         - 5.5358535589409008e-03
         - 7.1749858820567593e-03
         - -8.7944638909106410e-03
         - 2.5333387309607949e-03
         - -8.1917203170168498e-03
         - -9.9441277586983113e-04
         - 3.5110407002328114e-03
         - 8.4236860008792408e-03
         - 1.7334351121967583e-02
         - -6.3516823236077343e-03
         - 5.4242452980331349e-03
         - -5.7944842316827562e-03
         - 1.4788216000096225e-02
         - -6.2053361503995475e-03
         - -7.0196552388530238e-03
         - 4.9352079771517844e-03
         - 5.1011391193288942e-03
         - -5.6736437063563214e-03
         - -1.1808641830980324e-02
         - -2.8012554376257671e-03
         - -2.6523429808211190e-03
         - -2.7489333894224117e-03
         - -1.0288577460622696e-02
         - -5.1386064012439179e-03
         - 4.3647562022836065e-03
         - 9.9858903970999786e-03
         - -4.2618251858619919e-03
         - -7.5831217103379121e-04
         - -9.3684706625875459e-03
         - -1.8306415090432742e-03
         - 9.3321942238778609e-03
         - -2.0460885597266202e-03
         - -2.1147936684237337e-03
         - 1.8792195264122986e-03
         - -2.7592491839964393e-03
         - -2.8286683441487905e-03
         - 1.9930463115188633e-03
         - -1.1403956775611056e-02
         - -1.6386135742127471e-03
         - -1.5776940804922885e-02
         - -1.0872414949262428e-02
         - -4.0944832655701643e-03
         - 8.0346374074937894e-03
         - -2.5564684767632171e-03
         - -4.9915617802841483e-03
         - -6.3434323852303081e-03
         - -8.3231144139727931e-03
         - -1.0462247492952463e-02
         - 1.0630422832766948e-03
         - 7.4173509332187363e-03
         - -8.1482040633328607e-03
         - -8.7387051035574172e-04
         - -4.7614146091106303e-03
         - 3.1385420762105767e-03
         - -3.7532606395533318e-03
         - -8.1473224352402659e-03
         - 1.0915892283058200e-02
         - -9.7278311678593611e-03
         - 8.9993645555927169e-03
         - -7.5890670581976686e-03
         - -8.3815322594696443e-03
         - 2.7356678257175544e-03
         - 5.5802043920163700e-03
         - -4.0002594369958301e-03
         - 1.0662382971318362e-03
         - 1.3682388976330105e-02
         - 9.8767631596877112e-03
         - 1.3851680163581778e-02
         - 1.1073598551530797e-02
         - -3.3112699312872122e-03
         - 6.8241727650095356e-03
         - 8.8244502229293045e-03
         - -1.1212692287331573e-02
         - -3.4246576224379764e-03
         - -1.5547921753425616e-02
         - 2.0810385794154938e-03
         - -4.6609500225460176e-03
         - 3.7489194487940543e-03
         - 9.8640805883976040e-03
         - -1.5067858408633162e-02
         - 1.2979270807839355e-03
         - 4.7552414653462168e-03
         - 1.9720481312193476e-03
         - -7.5634651089048566e-03
